<?xml version="1.0"?>
<opencv_storage>
<opencv_ml_svm>
  <format>3</format>
  <svmType>C_SVC</svmType>
  <kernel>
    <type>LINEAR</type></kernel>
  <C>1.</C>
  <term_criteria><epsilon>1.0000000000000001e-05</epsilon>
    <iterations>20000</iterations></term_criteria>
  <var_count>1600</var_count>
  <class_count>6</class_count>
  <class_labels type_id="opencv-matrix">
    <rows>6</rows>
    <cols>1</cols>
    <dt>i</dt>
    <data>
      1 2 3 4 5 6</data></class_labels>
  <sv_total>15</sv_total>
  <support_vectors>
    <_>
      0. 0. 0. 0. 0. 0. 0. 0. 0. 0. 0. -1.58146952e-06 -1.58146952e-06
      -1.58146952e-06 -4.29722786e-06 -4.29722786e-06 -4.29722786e-06
      -6.26722840e-06 -4.29722786e-06 -4.29722786e-06 -4.29722786e-06
      -4.29722786e-06 -4.29722786e-06 -4.29722786e-06 -3.58640978e-06
      -3.58640978e-06 -3.58640978e-06 -3.58640978e-06 0. 0. 0. 0. 0. 0.
      0. 0. 0. 0. 0. 0. 0. 0. 0. 0. 0. 0. 0. 0. 0. 0. 0. -2.29228749e-06
      -4.29722786e-06 -4.29722786e-06 -6.26722840e-06 -6.26722840e-06
      -6.26722840e-06 -6.26722840e-06 -6.26722840e-06 -6.26722840e-06
      -6.26722840e-06 -6.26722840e-06 -6.26722840e-06 -6.26722840e-06
      -6.26722840e-06 -4.29722786e-06 -4.29722786e-06 -3.58640978e-06
      -3.58640978e-06 0. 0. 0. 0. 0. 0. 0. 0. 0. 0. 0. 0. 0. 0. 0. 0. 0.
      0. 0. 0. 0. -2.29228749e-06 -4.26228780e-06 -6.26722840e-06
      -6.26722840e-06 -6.26722840e-06 -6.26722840e-06 -6.26722840e-06
      -6.26722840e-06 -6.26722840e-06 -6.26722840e-06 -6.26722840e-06
      -6.26722840e-06 -6.26722840e-06 -6.26722840e-06 -6.26722840e-06
      -6.26722840e-06 -4.29722786e-06 -4.29722786e-06 -3.58640978e-06
      -1.58146952e-06 0. 0. 0. 0. 0. 0. 0. 0. 0. 0. 0. 0. 0. 0. 0. 0. 0.
      0. 0. -7.10818028e-07 -7.10818028e-07 -6.26722840e-06
      -6.26722840e-06 -6.26722840e-06 -6.26722840e-06 -1.17380578e-05
      -1.57019749e-05 -1.57019749e-05 -1.57019749e-05 -1.17380578e-05
      -1.46555267e-05 -1.52930261e-05 -1.52930261e-05 -9.82219626e-06
      -1.02311451e-05 -6.26722840e-06 -6.26722840e-06 -4.29722786e-06
      -3.58640978e-06 -3.58640978e-06 0. 0. 0. 0. 0. 0. 0. 0. 0. 0. 0.
      0. 0. 0. 0. 0. 0. 0. 0. -7.10818028e-07 -2.68081840e-06
      -6.26722840e-06 -6.26722840e-06 -1.17380578e-05 -2.75453403e-05
      -3.15092584e-05 -3.15092584e-05 -3.15092584e-05 -3.15092584e-05
      -3.15092584e-05 -3.15092584e-05 -2.98291216e-05 -1.71935808e-05
      -7.13957161e-06 -5.88395551e-06 -7.09994947e-06 8.39777613e-07
      -6.26722840e-06 -4.29722786e-06 -4.29722786e-06 -3.58640978e-06 0.
      0. 0. 0. 0. 0. 0. 0. 0. 0. 0. 0. 0. 0. 0. 0. 0. 0. -2.68081840e-06
      -6.26722840e-06 -1.63038112e-05 -3.15092584e-05 -3.15092584e-05
      -3.15092584e-05 -3.15092584e-05 -3.15092584e-05 -3.15092584e-05
      -3.15092584e-05 -1.88352333e-05 -1.33370077e-05 -9.07089270e-06
      -1.06873149e-05 -1.06873149e-05 -1.06873149e-05 -1.19585020e-05
      -4.42008331e-06 -1.02311451e-05 -8.26114501e-06 -4.29722786e-06
      -3.58640978e-06 -1.58146952e-06 0. 0. 0. 0. 0. 0. 0. 0. 0. 0. 0.
      0. 0. 0. 0. 0. 0. -2.68081840e-06 -2.20745114e-05 -3.15092584e-05
      -3.15092584e-05 -3.15092584e-05 -3.07984410e-05 -2.92169698e-05
      -1.41494756e-05 -1.57321574e-05 -1.06562029e-05 -6.21954587e-06
      -5.48448270e-06 -5.48448270e-06 -5.48448270e-06 -8.06759817e-06
      -8.06759817e-06 -1.09552075e-05 -1.63066034e-05 -2.59402113e-05
      -1.31486140e-05 -7.55032670e-06 -3.58640978e-06 -1.58146952e-06 0.
      0. 0. 0. 0. 0. 0. 0. 0. 0. 0. 0. 0. 0. 0. 0. 0. -7.10818028e-07
      -1.68716797e-05 -2.71805748e-05 -2.84746966e-05 -2.25093372e-05
      -1.25330525e-05 -1.21457351e-05 -8.88299110e-06 -4.24954578e-06
      -2.80366407e-06 -1.80036966e-06 -3.77037009e-06 -3.77037009e-06
      -4.48118817e-06 -6.06265758e-06 -8.06759817e-06 -7.91681305e-06
      -1.45393951e-05 -2.72928737e-05 -2.30227415e-05 -1.66494428e-05
      -3.58640978e-06 -1.58146952e-06 0. 0. 0. 0. 0. 0. 0. 0. 0. 0. 0.
      0. 0. 0. 0. 0. 0. 1.61642265e-06 -1.54535410e-05 -2.44793373e-05
      -1.18257331e-05 -8.19124125e-06 -3.54222561e-06 -2.09634391e-06
      -2.09634391e-06 -1.09304949e-06 -1.09304949e-06 -1.09304949e-06
      -1.09304949e-06 -3.06304992e-06 -3.77386800e-06 1.08232371e-06
      -1.47915148e-06 -9.18799924e-06 -1.45393951e-05 -2.72928737e-05
      -3.05059639e-05 -2.12151954e-05 -7.55032670e-06 -1.58146952e-06 0.
      0. 0. 0. 0. 0. 0. 0. 0. 0. 0. 0. 0. 0. 0. 0. 7.07320112e-07
      -6.00031899e-06 -1.26692830e-05 -1.54814461e-05 -2.09634391e-06
      -2.09634391e-06 -1.09304949e-06 1.82441920e-06 2.41489797e-05
      2.41489797e-05 1.97340123e-05 2.69435059e-05 1.86194429e-05
      1.86194429e-05 8.67393828e-06 1.23310895e-06 1.58146952e-06
      -8.48067884e-06 -1.45393951e-05 -2.87387556e-05 -3.15092584e-05
      -2.95392565e-05 -1.30211565e-05 -5.54538656e-06 0. 0. 0. 0. 0. 0.
      0. 0. 1.06836051e-05 0. 0. 0. 0. 7.07320112e-07 7.07320112e-07
      2.32374282e-06 2.32374282e-06 2.71106046e-06 -6.53891266e-06
      -5.44486466e-06 3.47270316e-06 2.41489797e-05 2.42997648e-05
      2.42997648e-05 2.66530660e-05 2.66530660e-05 3.15092584e-05
      3.15092584e-05 3.15092584e-05 3.15092584e-05 2.62326867e-05
      9.05723937e-06 1.58146952e-06 -3.37782922e-06 -6.62258299e-06
      -2.38825633e-05 -3.15092584e-05 -2.95392565e-05 -1.75869081e-05
      -1.10162155e-05 0. 0. 0. 0. 0. 0. 0. 0. 9.79869310e-06 0. 0. 0.
      2.32374282e-06 2.32374282e-06 2.32374282e-06 2.32374282e-06
      2.32374282e-06 2.71106046e-06 5.97380449e-06 1.21702788e-05
      2.42997648e-05 2.42997648e-05 2.66530660e-05 3.15092584e-05
      3.15092584e-05 3.15092584e-05 3.15092584e-05 3.15092584e-05
      3.15092584e-05 3.15092584e-05 2.24743781e-05 1.30211565e-05
      1.10162155e-05 -1.27118676e-06 -6.62258299e-06 -2.00833820e-05
      -2.41489797e-05 -2.46830659e-05 -1.88879549e-05 -9.39979327e-06
      1.61642265e-06 0. 0. 0. 0. 0. 0. 1.61642265e-06 1.16154706e-05 0.
      0. 0. 1.61642265e-06 2.32374282e-06 2.32374282e-06 2.32374282e-06
      2.32374282e-06 2.71106046e-06 7.12788415e-06 1.32679634e-05
      2.66530660e-05 3.15092584e-05 3.15092584e-05 3.15092584e-05
      3.15092584e-05 2.98291216e-05 2.04167027e-05 2.08256533e-05
      3.15092584e-05 3.15092584e-05 2.05043780e-05 1.59386254e-05
      1.10162155e-05 -1.27118676e-06 -6.62258299e-06 -2.08219426e-05
      -2.31456852e-05 -2.46830659e-05 -1.88879549e-05 -5.43587612e-06
      1.61642265e-06 0. 0. 0. 0. 0. 0. 1.61642265e-06 -7.37320420e-07 0.
      0. 0. 1.61642265e-06 1.61642265e-06 2.32374282e-06 2.32374282e-06
      2.32374282e-06 2.71106046e-06 7.12788415e-06 1.32679634e-05
      3.15092584e-05 3.15092584e-05 2.08256533e-05 1.87581991e-05
      1.41247538e-05 1.41247538e-05 1.91610870e-05 1.95700359e-05
      3.15092584e-05 3.15092584e-05 2.88284391e-05 2.05043780e-05
      1.55819689e-05 -1.27118676e-06 -6.62258299e-06 -2.08219426e-05
      -2.08219426e-05 -2.26833417e-05 -2.05043780e-05 -7.05229877e-06 0.
      0. 0. 0. 0. 0. 0. 1.61642265e-06 -2.18320201e-06 0. 0. 0.
      1.61642265e-06 1.61642265e-06 1.61642265e-06 1.61642265e-06
      1.61642265e-06 2.77050231e-06 7.50267827e-06 1.70078856e-05
      1.92824446e-05 1.14258764e-05 1.21331968e-05 1.19824117e-05
      1.05365298e-05 1.05365298e-05 1.39500589e-05 2.88077608e-05
      3.15092584e-05 3.15092584e-05 2.88284391e-05 2.05043780e-05
      1.10162155e-05 -4.64901586e-06 -1.73061890e-05 -2.08219426e-05
      -2.38825633e-05 -2.70612309e-05 -1.55819689e-05 -5.47082936e-06 0.
      0. 0. 0. 0. 0. 0. 1.61642265e-06 -1.18943044e-05 0. 0. 0.
      1.61642265e-06 1.61642265e-06 1.61642265e-06 0. 0. 1.00329453e-06
      3.35659547e-06 8.21278718e-06 6.01027114e-06 6.01027114e-06
      7.62669379e-06 7.47590866e-06 8.18322860e-06 7.17993453e-06
      1.45476479e-05 2.88077608e-05 3.15092584e-05 2.88284391e-05
      2.88284391e-05 1.55819689e-05 5.47082936e-06 -4.64901586e-06
      -6.62258299e-06 -1.93760607e-05 -2.15292621e-05 -2.70612309e-05
      -1.55819689e-05 -5.47082936e-06 0. 0. 0. 0. 0. 0. 0.
      -2.94933011e-06 -9.29554062e-06 0. 0. 0. 0. 0. 0. 0. 0.
      1.00329453e-06 1.00329453e-06 0. 0. 0. 1.76720778e-06
      2.61971718e-06 1.61642265e-06 2.32374282e-06 1.00787738e-05
      2.15982673e-05 3.15092584e-05 2.88284391e-05 2.39060300e-05
      1.40004995e-05 5.47082936e-06 -1.27118676e-06 -6.62258299e-06
      -2.08219426e-05 -2.08219426e-05 -2.70612309e-05 -1.55819689e-05
      -5.47082936e-06 0. 0. 0. 0. 1.61642265e-06 1.61642265e-06
      1.61642265e-06 -2.94933011e-06 -9.29554062e-06 0. 0. 0. 0. 0. 0.
      0. 0. 0. 0. 0. 0. 0. 0. 0. 0. 2.32374282e-06 9.50241883e-06
      1.09146622e-05 2.88284391e-05 2.05043780e-05 1.55819689e-05
      5.47082936e-06 5.47082936e-06 -4.64901586e-06 -1.73061890e-05
      -2.08219426e-05 -1.81411251e-05 -1.51123813e-05 -1.16180518e-05
      -5.47082936e-06 0. 0. 0. 0. 1.61642265e-06 1.61642265e-06
      1.61642265e-06 -1.11009776e-05 -3.41362488e-06 0. 0. 0. 0. 0. 0.
      0. 0. 0. 0. 0. 0. 0. 0. 0. 0. 1.61642265e-06 9.35163371e-06
      2.08874499e-05 2.88284391e-05 1.75869081e-05 1.00365824e-05
      -4.23516474e-22 -4.23516474e-22 -4.64901586e-06 -1.73061890e-05
      -2.08219426e-05 -1.81411251e-05 -9.25289532e-06 -9.88579723e-06 0.
      0. 0. 0. 0. 1.61642265e-06 1.61642265e-06 1.61642265e-06
      -3.66014820e-06 -3.41362488e-06 0. 0. 0. 0. 1.61642265e-06
      1.61642265e-06 0. 0. 0. 0. 0. 0. 0. 0. 0. 0. 1.61642265e-06
      6.67081531e-06 1.79141553e-05 1.75869081e-05 1.00365824e-05
      5.47082936e-06 -4.23516474e-22 -4.23516474e-22 -4.64901586e-06
      -6.62258299e-06 -1.66952432e-05 -4.89465356e-06 6.50732773e-07
      -9.17847683e-06 0. 0. 0. 0. 0. 1.61642265e-06 1.61642265e-06
      1.61642265e-06 -3.66014820e-06 -2.70630471e-06 0. 0. 0. 0. 0. 0.
      0. 0. 0. 0. 0. 0. 0. 0. 0. 0. -2.68081840e-06 -3.97698886e-06
      3.71200190e-06 2.82708970e-06 5.47082936e-06 -4.23516474e-22
      -4.23516474e-22 -4.23516474e-22 -4.64901586e-06 -1.46253697e-05
      -1.66952432e-05 -4.89465356e-06 -3.52561727e-07 8.58105295e-07 0.
      0. 0. 0. 0. 0. 0. 0. -1.19842098e-05 -6.79145433e-06
      1.50785183e-07 1.50785183e-07 0. 0. 0. 0. 0. 0. 0. 0. 0. 0. 0. 0.
      0. -1.10048804e-05 -1.39223484e-05 -1.08583745e-05 -5.29826593e-06
      -1.73866306e-06 -4.23516474e-22 -4.23516474e-22 -4.23516474e-22
      -4.23516474e-22 -1.96819747e-06 -6.30130808e-06 -5.45371222e-06
      4.99947589e-07 4.06240588e-06 7.07320112e-07 7.07320112e-07 0. 0.
      0. 0. 0. 0. 0. -1.19842098e-05 -2.07518624e-05 2.35330094e-06 0.
      0. 0. 0. 0. 1.61642265e-06 1.61642265e-06 0. 0. 0. 0. 0.
      -1.97000031e-06 -5.59828732e-06 -1.39223484e-05 -1.78862665e-05
      -1.90105366e-05 -5.29826593e-06 -7.20949265e-06 -4.23516474e-22
      -4.23516474e-22 -4.23516474e-22 2.68081840e-06 9.27333258e-06
      -3.38383938e-06 2.09661425e-06 5.21648553e-06 9.53323524e-06
      3.06062111e-06 0. 0. 0. 0. 0. 0. 0. 0. -2.94933011e-06
      -6.08413393e-06 5.23949211e-06 0. 0. 0. 0. 0. 1.61642265e-06
      1.61642265e-06 0. 0. 0. 0. 0. -2.68081840e-06 -1.78862665e-05
      -1.98912057e-05 -2.44738112e-05 -2.44813673e-05 -1.07690948e-05
      -7.91681305e-06 -2.35330094e-06 7.10818028e-07 2.68081840e-06
      1.39223484e-05 1.32372497e-05 2.58501791e-06 6.66236701e-06
      1.06873149e-05 9.53323524e-06 3.06062111e-06 7.07320112e-07 0. 0.
      0. 0. 0. 0. 0. 1.61642265e-06 -6.23491906e-06 7.91681305e-06 0. 0.
      0. 0. 0. 0. 0. 0. 0. 0. -1.97000031e-06 -1.10048804e-05
      -1.78862665e-05 -1.78862665e-05 -3.15092584e-05 -3.15092584e-05
      -2.44813673e-05 -1.07690948e-05 -7.91681305e-06 -3.83300517e-07
      5.59828732e-06 1.39223484e-05 1.98912057e-05 1.52421899e-05
      8.30530098e-06 9.07089270e-06 9.07089270e-06 7.91681305e-06
      4.67704376e-06 2.32374282e-06 1.61642265e-06 0. 0. 0. 0. 0. 0.
      1.61642265e-06 -1.27712465e-05 0. 0. 0. 0. 0. 0. 0. 0. 0. 0. 0.
      -1.39223484e-05 -1.78862665e-05 -2.44569583e-05 -2.44569583e-05
      -3.15092584e-05 -3.15092584e-05 -2.44813673e-05 -1.07690948e-05
      -8.06759817e-06 7.94425887e-06 1.78862665e-05 1.98912057e-05
      2.44569583e-05 2.13894127e-05 1.37761299e-05 9.07089270e-06
      9.07089270e-06 7.91681305e-06 9.53323524e-06 4.67704376e-06
      2.32374282e-06 1.61642265e-06 1.61642265e-06 0. 0. 0. 0.
      -2.71575846e-06 -1.67242579e-05 0. 0. 0. 0. 0. 0. 0. 0. 0. 0.
      -1.39223484e-05 -1.78862665e-05 -2.40334884e-05 -2.60384277e-05
      -3.15092584e-05 -3.15092584e-05 -2.99446401e-05 -2.44813673e-05
      -8.79909476e-06 -2.46931063e-06 1.48256449e-05 1.71789452e-05
      2.44569583e-05 2.99277890e-05 2.68602416e-05 1.37761299e-05
      1.21331968e-05 1.06873149e-05 9.68402037e-06 7.91681305e-06
      3.06062111e-06 7.07320112e-07 7.07320112e-07 0. 0. 0. 0. 0. 0.
      -8.76342165e-06 0. 0. 0. 0. 0. 0. 0. 0. 0. -1.10048804e-05
      -1.39223484e-05 -2.24520190e-05 -2.60384277e-05 -3.15092584e-05
      -3.15092584e-05 -3.15092584e-05 -2.99446401e-05 -1.12698362e-05
      5.33536422e-07 8.20224523e-06 1.29187829e-05 2.29778070e-05
      3.15092584e-05 3.15092584e-05 2.68602416e-05 1.33888125e-05
      1.21331968e-05 9.68402037e-06 1.06873149e-05 9.53323524e-06
      4.67704376e-06 2.32374282e-06 7.07320112e-07 0. 0. 0. 0. 0. 0.
      -1.20485865e-05 0. 0. 0. 0. 0. 0. 0. 0. 0. -1.39223484e-05
      -2.24520190e-05 -2.60384277e-05 -3.15092584e-05 -3.15092584e-05
      -3.15092584e-05 -3.15092584e-05 -1.96505771e-05 -6.59510079e-06
      4.49745357e-06 1.47729388e-05 2.03945528e-05 2.84486359e-05
      3.08019371e-05 3.15092584e-05 2.68602416e-05 1.33888125e-05
      1.21331968e-05 1.06873149e-05 9.68402037e-06 7.91681305e-06
      3.06062111e-06 7.07320112e-07 7.07320112e-07 7.07320112e-07 0. 0.
      0. 0. 0. -9.44577005e-06 0. 0. 0. 0. 0. 0. 0. 0. -1.19523484e-05
      -1.78862665e-05 -2.24520190e-05 -2.60384277e-05 -3.15092584e-05
      -3.15092584e-05 -3.15092584e-05 -2.31851955e-05 -1.60222917e-05
      -6.18615195e-06 1.00665011e-05 2.02437677e-05 2.18252371e-05
      2.84486359e-05 3.08019371e-05 3.08019371e-05 2.68602416e-05
      1.33888125e-05 1.21331968e-05 1.06873149e-05 9.68402037e-06
      3.21140624e-06 4.67704376e-06 4.67704376e-06 2.32374282e-06
      2.32374282e-06 1.61642265e-06 0. 0. 0. 0. -2.00494037e-06 0. 0. 0.
      0. 0. 0. 0. 0. -1.39223484e-05 -1.78862665e-05 -2.60384277e-05
      -3.15092584e-05 -3.15092584e-05 -3.15092584e-05 -3.15092584e-05
      -1.75869081e-05 -1.60222917e-05 -5.99326495e-06 1.20714412e-05
      2.18252371e-05 2.19760223e-05 2.84486359e-05 2.84486359e-05
      2.84486359e-05 2.68602416e-05 1.33888125e-05 1.05167737e-05
      9.07089270e-06 8.06759817e-06 9.68402037e-06 2.32374282e-06
      2.32374282e-06 7.07320112e-07 7.07320112e-07 7.07320112e-07 0. 0.
      0. 0. 0. 0. 0. 0. 0. 0. 0. 0. -7.10818028e-07 -1.39223484e-05
      -1.78862665e-05 -2.60384277e-05 -3.15092584e-05 -3.15092584e-05
      -3.15092584e-05 -3.07984410e-05 -3.07984410e-05 -2.52588816e-05
      -1.14715458e-05 1.06608850e-05 1.49438520e-05 1.50946371e-05
      1.79808285e-05 1.99508286e-05 2.23041297e-05 1.76551130e-05
      4.89100421e-06 3.63538811e-06 2.18950663e-06 4.10368102e-06
      4.10368102e-06 -9.03295984e-07 3.06062111e-06 7.07320112e-07
      7.07320112e-07 7.07320112e-07 7.07320112e-07 0. 0. 0. 0. 0. 0. 0.
      0. 0. 0. 0. -9.03487944e-06 -1.39223484e-05 -2.14726751e-05
      -3.15092584e-05 -3.15092584e-05 -3.15092584e-05 -3.15092584e-05
      -3.15092584e-05 -3.15092584e-05 -2.45618703e-05 -2.04860080e-05
      -7.54349230e-06 -6.26781230e-07 -4.75996046e-07 5.09101346e-06
      8.94594814e-06 6.73349632e-06 2.79529854e-06 -9.96881045e-06
      -1.19352444e-05 -8.81537380e-06 -9.10785002e-06 -7.83788266e-07
      3.95289544e-06 3.06062111e-06 3.06062111e-06 7.07320112e-07
      7.07320112e-07 7.07320112e-07 0. 0. 0. 0. 0. 0. 0. 0. 0. 0. 0.
      -1.39223484e-05 -1.59272895e-05 -2.14726751e-05 -3.15092584e-05
      -3.15092584e-05 -3.15092584e-05 -3.15092584e-05 -3.15092584e-05
      -2.95043174e-05 -2.63582297e-05 -2.08949568e-05 -8.79910840e-06
      -6.09761082e-06 -6.09761082e-06 -1.24141900e-06 -1.09063387e-06
      -2.11516226e-06 -1.44789028e-05 -1.68577790e-05 -1.88519552e-05
      -1.88519552e-05 -1.98552498e-05 -1.56765618e-05 -1.07890928e-05
      -3.85843259e-06 7.07320112e-07 7.07320112e-07 7.07320112e-07 0. 0.
      0. 0. 0. 0. 0. 0. 0. 0. 0. 0. -1.39223484e-05 -1.75087589e-05
      -2.14726751e-05 -3.15092584e-05 -3.15092584e-05 -3.15092584e-05
      -3.15092584e-05 -3.15092584e-05 -3.15092584e-05 -2.63582297e-05
      -2.08949568e-05 -8.79910840e-06 -6.09761082e-06 -6.09761082e-06
      -6.09761082e-06 -6.09761082e-06 -5.73964962e-06 -7.71321720e-06
      -2.07925477e-05 -2.20481652e-05 -2.04334247e-05 -2.48622273e-05
      -1.65381662e-05 -1.32931791e-05 -9.32926196e-06 7.07320112e-07
      7.07320112e-07 7.07320112e-07 7.07320112e-07 0. 0. 0. 0. 0. 0. 0.
      0. 0. 0. -7.10818028e-07 -1.10048804e-05 -1.75087589e-05
      -2.14726751e-05 -3.15092584e-05 -3.15092584e-05 -3.15092584e-05
      -3.15092584e-05 -3.15092584e-05 -3.15092584e-05 -2.65668114e-05
      -2.40724185e-05 -1.11299023e-05 -9.68402037e-06 -8.10255096e-06
      -8.10255096e-06 -9.68402037e-06 -9.68402037e-06 -1.61558182e-05
      -2.40531044e-05 -2.89092968e-05 -2.96478574e-05 -3.08019371e-05
      -1.85029348e-05 -1.32931791e-05 -9.32926196e-06 7.07320112e-07
      7.07320112e-07 7.07320112e-07 7.07320112e-07 7.07320112e-07 0. 0.
      0. 0. 0. 0. 0. 0. 0. -7.10818028e-07 -4.29722786e-06
      -1.45912900e-05 -1.45912900e-05 -1.63038112e-05 -2.46278723e-05
      -2.46278723e-05 -2.46278723e-05 -2.46278723e-05 -2.75453403e-05
      -2.26028933e-05 -2.01085004e-05 -8.16927968e-06 -1.11299023e-05
      -9.68402037e-06 -5.72010322e-06 -5.72010322e-06 -6.18046397e-06
      -1.23426862e-05 -2.38405482e-05 -2.50961639e-05 -2.75453403e-05
      -2.46278723e-05 -1.36264898e-05 -1.09107314e-05 -9.32926196e-06
      7.07320112e-07 7.07320112e-07 7.07320112e-07 7.07320112e-07 0. 0.
      0. 0. 0. 0. 0. 0. 0. 0. -7.10818028e-07 -4.29722786e-06
      -4.29722786e-06 -4.29722786e-06 -1.17380578e-05 -1.17380578e-05
      -1.17380578e-05 -1.17380578e-05 -1.17380578e-05 -1.17380578e-05
      -1.17380578e-05 -4.71016665e-06 6.38238771e-06 1.00871794e-05
      1.00871794e-05 5.52142683e-06 3.95680900e-06 -6.92206982e-07
      -1.25990182e-05 -1.48579284e-05 -1.48579284e-05 -2.46278723e-05
      -1.63038112e-05 -1.63038112e-05 -1.16180518e-05 -1.16180518e-05 0.
      0. 0. 0. 0. 0. 0. 0. 0. 0. 0. 0. 0. 0. 0. -4.29722786e-06
      -4.29722786e-06 -4.29722786e-06 -4.29722786e-06 -4.29722786e-06
      -4.29722786e-06 -9.76805768e-06 -4.29722786e-06 -4.29722786e-06
      -4.29722786e-06 -4.29722786e-06 7.18264391e-06 7.18264391e-06
      3.15769603e-06 3.15769603e-06 7.18264391e-06 7.18264391e-06
      -2.44239732e-06 -9.76805768e-06 -9.76805768e-06 -9.76805768e-06
      -9.76805768e-06 -9.05723937e-06 -7.05229877e-06 -1.58146952e-06 0.
      0. 0. 0. 0. 0. 0. 0. 0. 0. 0. 0. 0. 0. -1.58146952e-06
      -3.58640978e-06 -3.58640978e-06 -3.58640978e-06 -3.58640978e-06
      -3.58640978e-06 -3.58640978e-06 -3.58640978e-06 -3.58640978e-06
      -3.58640978e-06 -3.58640978e-06 -3.58640978e-06 -3.58640978e-06
      -3.58640978e-06 -3.58640978e-06 -3.58640978e-06 -3.58640978e-06
      -3.58640978e-06 -3.58640978e-06 -3.58640978e-06 -3.58640978e-06
      -3.58640978e-06 -3.58640978e-06 -3.58640978e-06 -1.58146952e-06
      -1.58146952e-06 0. 0. 0. 0. 0. 0. 0.</_>
    <_>
      0. 0. 0. 0. 0. 0. 0. 0. 0. 0. 0. 0. 0. 0. 0. 0. -5.18310753e-06
      -5.18310753e-06 -5.18310753e-06 -5.18310753e-06 -5.18310753e-06
      -5.18310753e-06 -5.18310753e-06 -5.18310753e-06 -5.18310753e-06 0.
      0. 0. 0. 0. 0. 0. 0. 0. 0. 0. 0. 0. 0. 0. 0. 0. 0. 0. 0. 0. 0. 0.
      0. 0. 0. 0. 0. -5.18310753e-06 -6.64679555e-06 -6.64679555e-06
      -6.64679555e-06 -6.64679555e-06 -6.64679555e-06 -6.64679555e-06
      -6.64679555e-06 -6.64679555e-06 -6.64679555e-06 -5.18310753e-06
      -5.18310753e-06 -5.18310753e-06 -5.18310753e-06 -5.18310753e-06 0.
      0. 0. 0. 0. 0. 0. 0. 0. 0. 0. 0. 0. 0. 0. 0. 0. 0. 0. 0. 0. 0.
      -5.18310753e-06 -6.64679555e-06 -8.62568140e-06 -8.62568140e-06
      -8.62568140e-06 -6.64679555e-06 -6.64679555e-06 -6.64679555e-06
      -6.64679555e-06 -1.10202673e-05 -1.10202673e-05 -6.64679555e-06
      -6.64679555e-06 -6.64679555e-06 -6.64679555e-06 -5.18310753e-06
      -5.18310753e-06 -5.18310753e-06 -5.18310753e-06 0. 0. 0. 0. 0. 0.
      0. 0. 0. 0. 0. 0. 0. 0. 0. 0. 0. 0. 0. 0. -8.62568140e-06
      -8.62568140e-06 -8.62568140e-06 -8.62568140e-06 -8.62568140e-06
      -1.29991531e-05 -1.29991531e-05 -1.29991531e-05 -1.29991531e-05
      -1.29991531e-05 -1.29991531e-05 -1.38506275e-05 -7.65842378e-06
      -6.80694848e-06 -6.80694848e-06 -1.10202673e-05 -1.10202673e-05
      -9.55657924e-06 -5.18310753e-06 -5.18310753e-06 -5.18310753e-06 0.
      0. 0. 0. 0. 0. 0. 0. 0. 0. 0. 0. 0. 0. 0. 0. 0. -1.97888585e-06
      -1.97888585e-06 -8.62568140e-06 -8.62568140e-06 -8.62568140e-06
      -1.33169042e-05 -1.29991531e-05 -1.38506275e-05 -1.41683795e-05
      -1.47728560e-05 -2.80207551e-05 -2.80207551e-05 -2.77030049e-05
      -2.77030049e-05 -1.02417862e-05 8.38469896e-06 5.45907187e-06
      8.80441439e-06 9.18682690e-06 3.82911594e-06 -1.10202673e-05
      -5.18310753e-06 -5.18310753e-06 -5.18310753e-06 0. 0. 0. 0. 0. 0.
      0. 0. 0. 0. 0. 0. 0. 0. 0. 0. -1.97888585e-06 -1.97888585e-06
      -7.16199384e-06 -8.94343248e-06 -1.37207671e-05 -3.21936132e-05
      -3.27980888e-05 -3.27980888e-05 -3.27980888e-05 -3.27980888e-05
      -3.27980888e-05 -3.27980888e-05 -1.28839138e-05 -2.68708141e-06
      8.44895749e-06 5.89886349e-06 5.89886349e-06 5.89886349e-06
      7.87774934e-06 6.33996478e-06 -1.18717417e-05 -1.10202673e-05
      -5.18310753e-06 -5.18310753e-06 0. 0. 0. 0. 0. 0. 0. 0. 0. 0. 0.
      0. 0. 0. 0. 0. -6.75622050e-06 -7.07397203e-06 -1.22570800e-05
      -1.43252437e-05 -3.27980888e-05 -3.27980888e-05 -3.27980888e-05
      -4.06463223e-05 -4.58294271e-05 -2.07321445e-05 -1.89832754e-05
      -1.13365368e-05 1.11732561e-05 1.11732561e-05 1.11732561e-05
      5.99014857e-06 5.99014857e-06 1.10852343e-05 5.89886349e-06
      -6.90793468e-06 -2.57241190e-05 -1.18717417e-05 -1.04080545e-05
      -5.18310753e-06 0. 0. 0. 0. 0. 0. 0. 0. 0. 0. 0. 0. 0. 0. 0. 0.
      -6.75622050e-06 -7.07397203e-06 -2.01053099e-05 -3.24408938e-05
      -4.19654825e-05 -5.76228886e-05 -5.34095707e-05 -4.51932792e-05
      -4.51932792e-05 -3.78825061e-05 -2.16855242e-05 -2.16855242e-05
      -1.73120516e-05 -2.31492122e-05 -1.03316970e-05 2.69964130e-06
      -2.48346646e-06 1.31739371e-05 1.10852343e-05 -6.33672653e-06
      -2.31740232e-05 -2.57241190e-05 -1.18717417e-05 -9.55657924e-06
      -5.18310753e-06 0. 0. 0. 0. 0. 0. 0. 0. 0. 0. 0. 0. 0. 0. 0.
      -3.26050722e-05 -3.29228242e-05 -3.03727302e-05 -3.91500398e-05
      -4.55935224e-05 -3.42661369e-05 -2.29643047e-05 -6.38490928e-06
      -6.38490928e-06 -8.36379513e-06 -8.36379513e-06 -8.36379513e-06
      -8.36379513e-06 -8.36379513e-06 -9.82748224e-06 -9.82748224e-06
      -6.21328900e-06 6.31383500e-06 -4.80199242e-06 -6.33672653e-06
      -2.31740232e-05 -2.57241190e-05 -1.18717417e-05 -1.18717417e-05
      -5.18310753e-06 0. 0. 0. 0. 0. 0. 0. 0. 0. 0. 0. 0. 0. 0. 0.
      -2.78277384e-05 -2.19956819e-05 -1.68093102e-05 -1.74137876e-05
      -2.19397843e-05 -4.87247007e-06 -4.87247007e-06 8.97990685e-06
      8.97990685e-06 8.97990685e-06 8.97990685e-06 8.97990685e-06
      2.04178596e-05 2.04178596e-05 2.04178596e-05 1.08673453e-06
      4.82257860e-07 -1.59375111e-06 -2.20203401e-05 -1.48103418e-05
      -2.31740232e-05 -2.57241190e-05 -2.57241190e-05 -1.01610558e-05
      -9.55657924e-06 0. 0. 0. 0. 0. 0. 0. 0. 1.57008581e-05 0. 0. 0. 0.
      8.94825735e-06 8.94825735e-06 -1.43505013e-05 -1.61483458e-05
      -1.61483458e-05 -1.96297133e-05 -7.76965680e-06 9.29765793e-06
      1.40749926e-05 1.40749926e-05 1.40749926e-05 1.39171952e-05
      1.86945308e-05 2.23967454e-05 2.04178596e-05 2.57241190e-05
      2.57241190e-05 2.57241190e-05 2.42604310e-05 5.10179598e-06
      -1.29529972e-05 -7.27442830e-06 -2.48292235e-05 -2.57241190e-05
      -2.57241190e-05 -2.36559536e-05 -9.55657924e-06 0. 0. 0. 0. 0. 0.
      0. 0. 1.70673138e-05 0. 0. 0. 1.14983513e-05 1.14983513e-05
      1.14983513e-05 1.14983513e-05 -1.58305938e-05 1.97807844e-06
      -1.82104054e-06 1.14054728e-05 2.71063309e-05 2.71063309e-05
      3.17258673e-05 4.05231694e-05 4.05231694e-05 6.14868331e-05
      6.14868331e-05 2.77030049e-05 2.77030049e-05 2.57241190e-05
      2.57241190e-05 2.42604310e-05 5.10179598e-06 -5.30625857e-06
      -2.27282198e-05 -2.02096853e-05 -2.79646829e-05 -1.69268169e-05
      -2.11058596e-05 -7.00648525e-06 2.55009422e-06 0. 0. 0. 0. 0. 0.
      2.55009422e-06 2.95883347e-05 0. 0. 0. 2.55009422e-06
      1.14983513e-05 1.14983513e-05 1.14983513e-05 1.41346281e-05
      2.18507212e-05 3.19601349e-05 4.84397315e-05 6.55070471e-05
      7.43043493e-05 7.43043493e-05 7.43043493e-05 7.43043493e-05
      7.00910314e-05 5.43901697e-05 4.57859751e-05 4.33604073e-05
      4.13815214e-05 2.42604310e-05 2.42604310e-05 5.22494656e-06
      -9.32786861e-07 -2.27282198e-05 -1.53778001e-05 -2.79646829e-05
      -1.69268169e-05 -7.85796055e-06 2.55009422e-06 2.55009422e-06 0.
      0. 0. 0. 0. 0. 2.55009422e-06 2.48971119e-05 0. 0. 0.
      2.55009422e-06 2.55009422e-06 1.14983513e-05 1.21593157e-05
      1.47955925e-05 2.18507212e-05 3.19601349e-05 4.84397315e-05
      7.43043493e-05 7.43043493e-05 5.86034876e-05 5.43901697e-05
      4.53769753e-05 4.36281080e-05 5.12748447e-05 5.72370336e-05
      5.44128598e-05 4.13815214e-05 3.99178352e-05 1.90773226e-05
      1.76213707e-05 1.01643954e-20 -2.27282198e-05 -1.58053681e-05
      -1.64663325e-05 -9.75718467e-06 -1.04080545e-05 0. 0. 0. 0. 0. 0.
      0. 0. 2.55009422e-06 1.01932610e-05 6.60964247e-07 0. 0.
      2.55009422e-06 2.55009422e-06 2.55009422e-06 2.55009422e-06
      7.85635257e-06 1.04926303e-05 2.04476291e-05 3.68916662e-05
      4.21446712e-05 2.84569815e-05 3.80662023e-05 3.08824128e-05
      3.08824128e-05 3.08824128e-05 4.36281080e-05 7.26201397e-05
      7.20077078e-05 4.13815214e-05 3.47347268e-05 1.84728469e-05
      4.37347171e-06 -7.64673860e-06 -3.84290761e-05 -2.05827018e-05
      -2.93731628e-05 -8.46243711e-06 -5.18310753e-06 0. 0. 0. 0. 0.
      6.60964247e-07 6.60964247e-07 5.30625857e-06 7.85635257e-06
      -4.33074229e-06 6.60964247e-07 0. 0. 2.55009422e-06 2.55009422e-06
      2.55009422e-06 5.30625857e-06 5.30625857e-06 0. 1.05867603e-05
      1.93840624e-05 1.41035598e-05 1.41035598e-05 1.73146182e-05
      1.73146182e-05 2.62628746e-05 2.62628746e-05 3.94715171e-05
      6.74370312e-05 4.75522393e-05 3.03612560e-05 2.97567785e-05
      1.01643954e-20 1.01643954e-20 -7.64673860e-06 -1.44679325e-05
      -1.58053681e-05 -2.47536245e-05 -2.82352426e-06 0. 0. 0. 0. 0. 0.
      0. 0. 0. 7.85635257e-06 8.02244085e-06 0. 0. 0. 0. 0. 0. 0. 0.
      5.30625857e-06 5.30625857e-06 0. 0. -1.46368768e-06
      -4.09670110e-06 -1.63553268e-05 -1.57508493e-05 -7.65406730e-06
      2.65346102e-06 3.23517706e-05 1.65088786e-05 1.56574042e-05
      1.56574042e-05 1.01643954e-20 1.01643954e-20 1.01643954e-20
      -1.44679325e-05 2.00936356e-05 9.91875095e-06 3.21105836e-06 0. 0.
      0. 0. 0. 0. 2.55009422e-06 2.55009422e-06 2.55009422e-06
      3.21105836e-06 -3.14435329e-06 0. 0. 0. 0. 0. 0. 0. 0. 0. 0.
      -1.97888585e-06 -1.97888585e-06 -3.44257364e-06 -1.00816333e-05
      -2.17357810e-05 -2.17357810e-05 -2.09502432e-05 -1.03778775e-05
      -2.20105394e-05 1.56574042e-05 1.56574042e-05 1.01643954e-20
      1.01643954e-20 1.32478999e-05 -6.72451051e-06 2.19193789e-05
      2.24087980e-05 2.55761552e-05 1.21593157e-05 6.60964247e-07 0. 0.
      0. 0. 0. 2.55009422e-06 2.55009422e-06 2.55009422e-06
      7.85635257e-06 2.58458913e-05 0. 0. 0. 0. 0. 0. 0. 0. 0.
      -1.30313383e-05 -1.53279761e-05 -1.67916623e-05 -1.67916623e-05
      -3.95696188e-05 -5.42734706e-05 -5.26797194e-05 -4.74933477e-05
      -2.62238573e-05 -6.30968088e-06 1.56574042e-05 1.01643954e-20
      1.01643954e-20 1.01643954e-20 1.48127774e-05 2.19624399e-05
      3.89997058e-06 2.70536711e-05 2.13258336e-05 1.51125450e-05
      -5.18310753e-06 0. 0. 0. 0. 0. 2.55009422e-06 2.55009422e-06
      2.55009422e-06 7.85635257e-06 -4.06825052e-07 5.30625857e-06 0. 0.
      0. 2.55009422e-06 2.55009422e-06 0. 0. 0. -2.58488526e-05
      -3.29228242e-05 -4.85802302e-05 -5.00439164e-05 -5.00439164e-05
      -6.99308730e-05 -7.36433794e-05 -6.31507501e-05 -4.18812597e-05
      -2.19670856e-05 1.01643954e-20 1.01643954e-20 1.30313383e-05
      1.53279761e-05 3.29228242e-05 2.52760856e-05 1.96008277e-05
      1.38057712e-05 6.62198272e-06 1.31572415e-06 -1.45979732e-06
      -5.18310753e-06 0. 0. 0. 0. 2.55009422e-06 2.55009422e-06
      2.55009422e-06 3.21105836e-06 -4.04550337e-06 5.30625857e-06 0. 0.
      0. 0. 0. 0. 0. 0. -2.58488526e-05 -3.29228242e-05 -4.85802302e-05
      -5.00439164e-05 -6.32918163e-05 -6.90793968e-05 -7.43043493e-05
      -6.83371254e-05 -5.33796119e-05 -2.19670856e-05 -1.34168395e-05
      1.28175143e-05 1.28175143e-05 3.29228242e-05 3.29228242e-05
      4.09334898e-05 1.80936877e-05 1.23420841e-05 1.31572415e-06
      1.31572415e-06 -1.53121728e-05 -1.10125311e-05 -5.18310753e-06 0.
      0. 0. 0. 0. 0. 8.51731693e-06 -2.06404984e-05 6.60964247e-07 0. 0.
      0. 0. 0. 0. 0. 0. -1.28175143e-05 -3.29228242e-05 -4.85802302e-05
      -5.00439164e-05 -4.47376588e-05 -4.47376588e-05 -4.99207636e-05
      -4.47376588e-05 -3.08680501e-05 -1.18380185e-05 4.80900871e-06
      1.82258482e-05 2.00308750e-05 2.48082106e-05 2.48082106e-05
      4.53069624e-05 2.24671585e-05 1.49783609e-05 1.23420841e-05
      1.31572415e-06 -1.46512093e-05 -2.06427399e-06 -9.55657924e-06
      -5.18310753e-06 0. 0. 0. 0. 0. 7.85635257e-06 -2.80755739e-05
      4.61953778e-06 0. 0. 0. 0. 0. 2.55009422e-06 2.55009422e-06 0. 0.
      -3.55488919e-05 -4.85802302e-05 -4.85802302e-05 -4.85802302e-05
      -4.32739689e-05 -4.32739689e-05 -4.32739689e-05 -2.94043639e-05
      -6.65491098e-06 1.08435916e-05 2.42604310e-05 2.42604310e-05
      2.42604310e-05 3.99178352e-05 2.70879882e-05 7.45693433e-06
      1.93518317e-05 1.23420841e-05 -1.47963505e-07 -1.06926354e-05
      -2.42604310e-05 -9.55657924e-06 -9.55657924e-06 0. 0. 0. 0. 0.
      2.55009422e-06 -3.65697815e-06 1.87230980e-05 0. 0. 0. 0. 0.
      2.55009422e-06 2.55009422e-06 0. 0. -4.77733465e-06
      -2.24136238e-05 -3.52311399e-05 -2.24136238e-05 -2.24136238e-05
      -2.24136238e-05 -3.23055101e-05 -2.49765253e-05 7.84011445e-06
      -3.82476674e-06 2.11045808e-05 2.42604310e-05 2.42604310e-05
      2.42604310e-05 1.66136924e-05 9.43129271e-06 -7.62443096e-06
      -1.62204140e-06 -1.47963505e-07 -1.21563235e-05 -1.53121728e-05
      -2.42604310e-05 -9.55657924e-06 -5.18310753e-06 0. 0. 0. 0.
      2.55009422e-06 1.76341509e-05 2.23650968e-05 0. 0. 0. 0. 0. 0. 0.
      0. 0. 0. 0. 0. -4.77733465e-06 0. 0. -1.56574042e-05
      1.05723657e-05 2.26365155e-05 2.20240854e-05 2.11045808e-05
      2.57241190e-05 2.42604310e-05 2.42604310e-05 1.66136924e-05
      -6.22611105e-06 -9.48202705e-06 -1.84396122e-05 -2.69805764e-06
      -8.94526511e-06 -1.27620797e-05 -2.17103370e-05 -2.42604310e-05
      -5.18310753e-06 -5.18310753e-06 0. 0. 0. 2.55009422e-06
      1.40506772e-05 5.30625857e-06 0. 0. 0. 0. 0. 0. 0. 0. 0. 0. 0. 0.
      0. 0. 0. 0. 1.05723657e-05 4.00917634e-05 4.47554630e-05
      2.71665467e-05 3.87554574e-05 2.57241190e-05 2.57241190e-05
      1.66136924e-05 -6.22611105e-06 -1.18915314e-05 -1.84396122e-05
      -4.67694372e-06 -1.47963505e-07 -8.14254145e-06 -1.27620797e-05
      -2.17103370e-05 -7.00648525e-06 -5.18310753e-06 0. 0. 0. 0.
      -1.92553512e-06 5.30625857e-06 0. 0. 0. 0. 0. 0. 0. 0. 0. 0. 0. 0.
      0. 0. 0. 2.92562709e-06 1.05723657e-05 3.47855057e-05
      3.94492017e-05 6.04187990e-05 2.95933751e-05 2.57241190e-05
      2.57241190e-05 1.66136924e-05 -6.22611105e-06 -2.31938138e-05
      -2.31938138e-05 1.03631974e-05 -2.69805764e-06 -1.14953591e-05
      -1.53121728e-05 -1.53121728e-05 -9.55657924e-06 -5.18310753e-06 0.
      0. 0. 0. -5.52886831e-06 0. 0. 0. 0. 0. 0. 0. 0. 0. 0. 0. 0. 0. 0.
      0. 0. 2.92562709e-06 1.05723657e-05 3.22354099e-05 3.62381434e-05
      4.40828990e-05 6.04187990e-05 2.57241190e-05 2.57241190e-05
      1.66136924e-05 -6.22611105e-06 -2.31938138e-05 -2.40452882e-05
      5.58586316e-06 5.15829515e-06 -8.94526511e-06 -1.27620797e-05
      -1.53121728e-05 -9.55657924e-06 -5.18310753e-06 0. 0. 0. 0.
      5.53737891e-06 0. 0. 0. 0. 0. 0. 0. 0. 0. 0. 0. 0. 0. 0. 0. 0.
      2.92562709e-06 1.05723657e-05 3.22354099e-05 4.15444047e-05
      4.22053672e-05 3.45699482e-05 1.67758608e-05 2.57241190e-05
      3.36579274e-06 -2.00784871e-05 -2.40452882e-05 -2.84187590e-05
      -2.02629890e-05 2.60820070e-06 -1.14953591e-05 -1.46512093e-05
      -2.06427399e-06 3.76514936e-06 -5.18310753e-06 0. 0. 0. 0.
      6.60964247e-07 6.60964247e-07 0. 0. 0. 0. 0. 0. 0. 0. 0. 0. 0.
      -1.32478999e-05 0. 0. 0. 2.92562709e-06 1.47856836e-05
      3.48716894e-05 3.62381434e-05 2.81953144e-05 3.45699482e-05
      3.52796155e-06 3.52796155e-06 -1.61215564e-06 -2.53034341e-05
      -2.66698898e-05 -3.62381434e-05 5.58586316e-06 -6.18910053e-06
      -3.63900631e-06 5.76632237e-06 1.09029691e-06 6.31524335e-06
      -2.63301354e-06 0. 0. 0. 0. 0. 0. 0. 0. 0. 0. 0. -1.30313383e-05
      -1.30313383e-05 -1.30313383e-05 -1.30313383e-05 -1.30313383e-05
      -1.30313383e-05 -1.38523765e-05 -1.38523765e-05 -1.38523765e-05
      -1.32478999e-05 -1.03222728e-05 -1.63113491e-05 7.98797373e-06
      1.52651646e-05 9.37017649e-06 6.86696069e-07 -6.06952472e-06
      -6.92099957e-06 -2.46363061e-06 -2.53034341e-05 -3.44030923e-05
      -2.31308350e-05 3.03576871e-06 5.15829515e-06 -3.16903140e-07
      4.85820237e-07 3.76514936e-06 3.76514936e-06 3.76514936e-06 0. 0.
      0. 0. 0. 0. 0. 0. 0. 0. -1.28175143e-05 -2.58488526e-05
      -2.61666046e-05 -2.58488526e-05 -2.58488526e-05 -1.30313383e-05
      -1.30313383e-05 -2.77351901e-05 -3.21086627e-05 -3.21086627e-05
      -3.21086627e-05 -4.20005490e-05 -3.43538086e-05 -1.26907644e-05
      -9.00578198e-06 -1.16102899e-06 -7.49220771e-06 -9.47109402e-06
      -6.31524335e-06 -1.39619815e-05 -3.30366347e-05 -3.61519633e-05
      2.71801764e-06 7.81310337e-06 1.58560997e-05 1.69605300e-06
      7.53321228e-06 3.76514936e-06 3.76514936e-06 8.94825735e-06
      8.94825735e-06 0. 0. 0. 0. 0. 0. 0. 0. 0. -2.84749185e-05
      -4.18240088e-05 -4.18240088e-05 -4.18240088e-05 -2.76302908e-05
      -2.61666046e-05 -3.13497112e-05 -4.57358110e-05 -5.01092836e-05
      -5.01092836e-05 -5.01092836e-05 -3.43538086e-05 -3.04582427e-05
      -1.13243077e-05 -2.46631862e-05 -2.42356182e-05 -1.62410397e-05
      -2.14241481e-05 -1.68046099e-05 -1.91450890e-05 -2.00052982e-05
      -2.31206232e-05 3.03576871e-06 2.10610033e-05 1.11543186e-05
      1.57183003e-05 8.38468713e-06 8.38468713e-06 8.94825735e-06
      8.94825735e-06 8.94825735e-06 0. 0. 0. 0. 0. 0. 0. 0. 0. 0.
      -4.34851427e-05 -4.85802302e-05 -4.18240088e-05 -4.32876950e-05
      -4.84708034e-05 -4.84708034e-05 -6.23231826e-05 -6.75481278e-05
      -6.60844380e-05 -6.60844380e-05 -6.31588118e-05 -5.85405396e-05
      -3.86263637e-05 -3.66025160e-05 -3.08824128e-05 -2.14241481e-05
      -2.14241481e-05 -2.44513485e-05 -2.60279267e-05 -2.88814067e-06
      1.86021953e-05 2.36972810e-05 2.07326939e-05 6.92099957e-06
      8.38468713e-06 3.76514936e-06 3.76514936e-06 8.94825735e-06
      8.94825735e-06 0. 0. 0. 0. 0. 0. 0. 0. 0. 0. -1.56574042e-05
      -3.52311399e-05 -3.55488919e-05 -3.55488919e-05 -5.00439164e-05
      -5.00439164e-05 -5.52270249e-05 -5.52270249e-05 -5.90775599e-05
      -5.90775599e-05 -5.90775599e-05 -5.81308195e-05 -6.19831117e-05
      -4.20689357e-05 -2.74545800e-05 -3.80662023e-05 -4.60317551e-06
      -4.60317551e-06 -3.45261219e-06 3.49139736e-06 2.84346675e-06
      5.87531531e-06 2.35594816e-05 6.92099957e-06 6.92099957e-06
      3.76514936e-06 3.76514936e-06 8.94825735e-06 8.94825735e-06
      8.94825735e-06 8.94825735e-06 0. 0. 0. 0. 0. 0. 0. 0. 0.
      -1.56574042e-05 -2.04347380e-05 -3.55488919e-05 -3.55488919e-05
      -3.70125781e-05 -3.70125781e-05 -3.70125781e-05 -4.21956865e-05
      -4.65691555e-05 -4.74206317e-05 -4.74206317e-05 -3.68482652e-05
      -3.08860799e-05 -1.38187643e-05 -1.11824875e-05 -1.11824875e-05
      1.63502693e-06 2.48650190e-06 1.40437623e-05 1.49154821e-05
      6.96322013e-06 -5.98940414e-06 2.30146156e-06 2.30146156e-06
      3.76514936e-06 3.76514936e-06 8.94825735e-06 8.94825735e-06
      8.94825735e-06 8.94825735e-06 8.94825735e-06 8.94825735e-06 0. 0.
      0. 0. 0. 0. 0. 0. 0. -2.04347380e-05 -2.27313758e-05
      -2.27313758e-05 -2.41950638e-05 -2.41950638e-05 -2.41950638e-05
      -2.93781704e-05 -4.21956865e-05 -2.93781704e-05 -2.93781704e-05
      -1.88058057e-05 -1.45924869e-05 4.22369612e-06 4.22369612e-06
      4.22369612e-06 4.22369612e-06 2.25173771e-05 1.51883905e-05
      8.04944466e-06 -4.62294747e-06 -6.64679555e-06 -6.64679555e-06
      -5.18310753e-06 3.76514936e-06 8.94825735e-06 8.94825735e-06
      8.94825735e-06 8.94825735e-06 8.94825735e-06 8.94825735e-06 0. 0.
      0. 0. 0. 0. 0. 0. 0. 0. 0. -6.75622050e-06 -6.75622050e-06
      -2.38773118e-05 -2.38773118e-05 -2.93781704e-05 -2.93781704e-05
      -2.93781704e-05 -2.93781704e-05 -2.93781704e-05 -2.93781704e-05
      -1.88058057e-05 1.10837038e-06 1.81322303e-05 1.84499822e-05
      1.84499822e-05 1.72732252e-05 1.26549521e-05 -7.25922473e-06
      -6.64679555e-06 -5.18310753e-06 0. 0. 0. 0. 0. 0. 0. 0. 0. 0. 0.
      0. 0. 0. 0. 0. 0. 0. 0. 0. -6.75622050e-06 -6.75622050e-06
      -6.75622050e-06 -8.21990852e-06 -8.21990852e-06 -8.21990852e-06
      -1.34030161e-05 -1.34030161e-05 -1.34030161e-05 -1.34030161e-05
      -1.34030161e-05 6.51116034e-06 6.51116034e-06 1.64716021e-05
      1.64716021e-05 1.12884945e-05 1.12884945e-05 4.21331833e-06 0. 0.
      0. 0. 0. 0. 0. 0. 0. 0. 0. 0. 0. 0. 0. 0. 0. 0. 0. 0. 0. 0. 0.
      -1.97888585e-06 -6.75622050e-06 -1.97888585e-06 -6.75622050e-06
      -6.75622050e-06 -6.75622050e-06 -6.75622050e-06 -1.97888585e-06
      -1.97888585e-06 -1.97888585e-06 -1.97888585e-06 -1.97888585e-06
      -1.97888585e-06 -1.97888585e-06 0. 0. 0. 0. 0. 0. 0. 0. 0. 0. 0.
      0. 0. 0. 0. 0. 0.</_>
    <_>
      0. 0. 0. 0. 0. 0. 0. 0. 0. 0. 0. 0. 0. 0. 0. 0. 0. 0. 0. 0. 0. 0.
      0. 0. 0. 0. 0. 0. 0. 0. 0. 0. 0. 0. 0. 0. 0. 1.12642431e-06
      1.12642431e-06 1.12642431e-06 0. 0. 0. 0. 0. 0. 0. 0. 0. 0. 0. 0.
      0. 0. 0. 0. 0. 0. 0. 0. 0. 0. 0. 0. 0. 0. 0. 0. 0. 0. 0. 0. 0. 0.
      0. 0. 0. 1.12642431e-06 1.12642431e-06 1.12642431e-06 0. 0. 0. 0.
      0. 0. 0. 0. 0. 0. 0. 0. 0. 0. 0. 0. 0. 0. 0. -2.92054710e-06
      -2.69893417e-06 -2.69893417e-06 -2.69893417e-06 -5.69501981e-06
      -5.69501981e-06 -5.69501981e-06 -2.99608564e-06 0. 0. 0. 0. 0. 0.
      0. 0. 0. 0. 1.12642431e-06 1.12642431e-06 1.12642431e-06 0. 0. 0.
      0. 0. 0. 0. 0. 0. 0. 0. 0. 0. 0. 0. 0. 0. 0. 0. -5.61948127e-06
      -8.61556691e-06 -1.99337373e-05 -8.61556691e-06 -8.61556691e-06
      -8.61556691e-06 -8.61556691e-06 -5.69501981e-06 0. 0. 0. 0. 0. 0.
      0. 0. 0. 0. 0. 0. 0. 0. 0. 0. 0. 0. 0. 0. 0. 0. 0. 0. 0. 0. 0. 0.
      0. 0. 0. -1.69376508e-05 -3.14893332e-05 -3.14893332e-05
      -3.69740592e-05 -3.37939855e-05 -3.41819468e-05 -2.52317841e-05
      -3.17862286e-05 -1.73100871e-05 -5.95845495e-06 0. 0. 0. 0. 0. 0.
      0. 0. 0. 0. 0. 0. 0. 0. 0. 0. 0. 0. 0. 0. 0. 0. 0. 0. 0. 0. 0. 0.
      0. -1.13181704e-05 -2.84932466e-05 -2.27387645e-05 -3.35438781e-05
      -3.30828807e-05 -3.58910802e-05 -3.81854843e-05 -3.81854843e-05
      -2.68673139e-05 -1.12785920e-05 -2.03656346e-05 0. 0. 0. 0. 0. 0.
      0. 0. 0. 0. 0. 0. 0. 0. 0. 0. 0. 0. 0. 0. 0. 0. 0. 0. 0. 0. 0. 0.
      -2.56760222e-06 -5.48814933e-06 -1.97426780e-05 -2.66014740e-05
      -3.03689903e-05 -3.69922855e-05 -3.37294950e-05 -3.37294950e-05
      -3.37294950e-05 -2.68072581e-05 -2.43347258e-05 -7.45899388e-06 0.
      0. 0. 0. 0. 0. 0. 0. 0. 0. 0. 0. 0. 0. 0. 0. 0. 0. 0. 0. 0. 0.
      3.60206695e-06 3.60206695e-06 3.60206695e-06 3.60206695e-06
      1.23526352e-05 1.23526352e-05 -1.49812388e-06 -6.38316851e-06
      -1.70111180e-05 -2.57404099e-05 -3.72450922e-05 -4.07862135e-05
      -3.70776870e-05 -3.82492981e-05 -4.01582729e-05 -4.35267611e-05
      -2.19816120e-05 7.09647475e-06 0. 0. 0. 0. 0. 0. 0. 0. 0. 0. 0. 0.
      0. 0. 0. 0. 0. 0. 0. 0. 0. 3.60206695e-06 3.60206695e-06
      3.60206695e-06 1.23526352e-05 1.92950392e-05 2.21100781e-05
      2.05231026e-05 3.40365004e-05 -7.13970849e-07 -1.18539074e-05
      -2.26401971e-05 -3.35577133e-05 -3.37378478e-05 -3.37378478e-05
      -2.18550122e-05 -2.49355999e-05 -2.64610844e-05 -1.57612321e-05
      7.09647475e-06 0. 0. 0. 0. 0. 0. 0. 0. 0. 0. 0. 0. 0. 0. 0. 0. 0.
      0. 0. 0. 0. 3.60206695e-06 6.41710676e-06 6.80506537e-06
      3.18412713e-05 3.18412713e-05 3.62756728e-05 1.31661373e-05
      7.05324146e-06 -3.04190758e-06 -6.96239431e-06 -7.18110778e-06
      -1.32336600e-05 -1.32336600e-05 -1.68829883e-05 -1.68829883e-05
      -1.71129868e-05 -3.26866138e-05 -1.39476906e-05 -1.06005227e-05 0.
      0. 0. 0. 0. 0. 0. 0. 0. 0. 0. 0. 8.75056776e-06 0. 0. 0. 0. 0. 0.
      3.60206695e-06 3.60206695e-06 6.41710676e-06 8.71404245e-06
      8.71404245e-06 3.72288887e-05 4.33938694e-05 3.70839844e-05
      2.15887831e-05 1.45108652e-05 -2.18664218e-06 2.63558968e-06
      1.42776230e-06 -6.12820713e-07 -1.33407689e-20 -1.33407689e-20
      -2.89874947e-06 -2.89874947e-06 -1.15195498e-05 6.30188424e-06
      6.30099703e-06 -1.50053870e-06 0. 0. 0. 0. 0. 0. 0. 0. 0. 0. 0.
      1.46070361e-05 0. 0. 0. 3.60206695e-06 3.60206695e-06
      3.60206695e-06 3.60206695e-06 6.41710676e-06 7.24650954e-06
      1.21508501e-05 2.42499336e-05 4.95810091e-05 5.03976371e-05
      3.97304284e-05 4.28866115e-05 2.96363814e-05 2.16120607e-05
      -6.12820713e-07 -6.12820713e-07 -1.33407689e-20 -1.33407689e-20
      -1.33407689e-20 -1.33407689e-20 -1.33407689e-20 -1.38656605e-06
      9.90137050e-06 6.94132359e-06 1.10407227e-05 1.11778627e-05
      3.60206695e-06 3.60206695e-06 3.60206695e-06 0. 0. 0. 0. 0. 0.
      3.60206695e-06 1.67434027e-05 0. 0. 0. 3.60206695e-06
      3.60206695e-06 3.60206695e-06 3.60206695e-06 3.60206695e-06
      1.32432197e-05 1.87872720e-05 2.84968428e-05 5.07942168e-05
      6.66764172e-05 3.39502585e-05 2.77096078e-05 2.22248818e-05
      2.04058301e-06 -8.75056776e-06 -8.75056776e-06 -1.33407689e-20
      -1.33407689e-20 -1.33407689e-20 -1.33407689e-20 -1.33407689e-20
      -7.04972081e-07 -5.84546797e-06 -3.58373541e-06 1.61170537e-05
      1.11778627e-05 3.60206695e-06 3.60206695e-06 3.60206695e-06 0. 0.
      0. 0. 0. 0. 3.60206695e-06 -6.86291833e-06 2.25220242e-06 0. 0.
      3.60206695e-06 3.60206695e-06 3.60206695e-06 6.24501035e-06
      7.31341470e-06 1.39950425e-05 2.34741528e-05 4.08679043e-05
      7.03019323e-05 3.39502585e-05 2.51996917e-05 1.89590392e-05
      -5.80543610e-06 -1.53050132e-05 -1.53050132e-05 -1.26060786e-05
      2.99608564e-06 -1.33407689e-20 -1.33407689e-20 -1.33407689e-20
      -1.33407689e-20 -2.81503981e-06 -3.89932393e-06 9.20160528e-06
      1.19471251e-05 1.61433290e-05 0. 0. 0. 0. 0. 0. 0. 0. 0.
      3.60206695e-06 -1.83571537e-05 6.12820713e-07 0. 0. 3.60206695e-06
      3.60206695e-06 3.60206695e-06 3.60206695e-06 1.77197489e-05
      1.83697375e-05 2.49401328e-05 5.09879283e-05 3.61362072e-05
      2.36798296e-05 2.21631944e-05 5.73454429e-07 -2.54659990e-05
      -2.25454514e-05 -2.24329938e-06 1.01359101e-05 1.17253776e-05
      5.95845495e-06 1.02541435e-05 -1.33407689e-20 -1.33407689e-20
      -1.33407689e-20 -3.62876108e-06 1.57272257e-06 1.36990584e-05
      3.60206695e-06 0. 0. 0. 0. 0. 0. 0. 0. 0. 6.41710676e-06
      -2.03380823e-05 4.16117882e-06 0. 0. 3.60206695e-06 3.60206695e-06
      3.60206695e-06 0. 8.31615853e-06 1.33422509e-05 1.68633105e-05
      1.22310394e-05 -1.07561136e-05 -1.40425127e-05 -1.89212569e-05
      -4.28373205e-05 -2.47347489e-05 -4.40145232e-06 1.93000642e-06
      6.17497062e-06 2.06478326e-05 1.82531821e-05 1.02541435e-05
      -1.33407689e-20 -1.33407689e-20 -1.33407689e-20 4.56301677e-06
      1.32128935e-05 4.68388225e-06 3.60206695e-06 0. 0. 0. 0. 0. 0. 0.
      0. 1.12642431e-06 1.68123534e-05 -1.04766823e-05 -7.13123836e-06
      2.81503981e-06 0. 0. 0. 8.31615853e-06 8.31615853e-06
      8.31615853e-06 1.31779279e-06 -1.24631933e-05 -2.67661417e-05
      -2.91060314e-05 -3.77646102e-05 -4.83606018e-05 -5.25891701e-05
      -2.75188140e-05 -1.12411990e-05 2.83076201e-06 -1.11609791e-06
      3.01975178e-05 9.49957666e-06 -1.33407689e-20 -1.33407689e-20
      -1.33407689e-20 -1.33407689e-20 8.96808342e-06 1.30954493e-06
      1.49380257e-05 3.60206695e-06 0. 0. 0. 0. 0. 0. 3.60206695e-06
      3.60206695e-06 5.51104358e-06 8.93485685e-06 -1.87034232e-06
      -7.25809014e-06 1.90897663e-06 0. 0. 0. 0. 0. 0. -1.02541435e-05
      -4.49709114e-05 -4.40701369e-05 -4.19946300e-05 -5.14913263e-05
      -5.83860674e-05 -4.39099240e-05 -3.78822078e-05 -1.78193168e-05
      3.92133097e-06 2.55251816e-05 4.19522003e-05 9.49957666e-06
      1.50053870e-06 -1.33407689e-20 -1.33407689e-20 -1.33407689e-20
      2.46971808e-06 1.77540983e-06 9.39215897e-06 3.60206695e-06 0. 0.
      0. 0. 0. 0. 3.60206695e-06 3.60206695e-06 6.41710676e-06
      1.01574797e-05 -1.94404060e-06 -3.21967195e-06 0. 0. 0. 0. 0. 0.
      -2.02406245e-05 -4.20503638e-05 -4.76698442e-05 -5.09144120e-05
      -6.81085585e-05 -8.16201064e-05 -5.84589325e-05 -3.66491950e-05
      -2.37251243e-05 -5.16906994e-06 9.76432693e-06 3.77813340e-05
      4.42044038e-05 9.49957666e-06 1.50053870e-06 -1.33407689e-20
      -1.33407689e-20 -1.33407689e-20 -8.29500368e-06 -1.59055205e-07
      1.99339593e-05 1.47799301e-05 0. 0. 0. 0. 0. 0. 3.60206695e-06
      7.58871784e-06 9.49769401e-06 1.91028757e-05 -1.80909194e-06
      -4.66269967e-06 0. 0. 0. 3.60206695e-06 3.60206695e-06
      -3.04947680e-05 -4.20503638e-05 -4.76698442e-05 -5.09144120e-05
      -5.93952209e-05 -8.16201064e-05 -5.11253347e-05 -3.66491950e-05
      -3.07056944e-05 -2.87967159e-05 8.83482528e-07 1.50727938e-05
      3.27941416e-05 4.19522003e-05 1.97537211e-05 1.50053870e-06
      -1.33407689e-20 -1.33407689e-20 -1.33407689e-20 4.55564560e-07
      8.04115189e-06 1.84351229e-05 1.84292567e-05 0. 0. 0. 0. 0. 0.
      3.60206695e-06 3.60206695e-06 8.32608384e-06 1.03457214e-05
      5.81782206e-06 -6.73813247e-06 0. 0. 0. -1.13181704e-05
      -3.04947680e-05 -4.20503638e-05 -4.49709114e-05 -5.09144120e-05
      -6.86763815e-05 -7.56616500e-05 -5.11253347e-05 -3.66491950e-05
      -3.66491950e-05 -2.87967159e-05 -1.30753260e-05 1.06435518e-05
      1.31085344e-05 3.21384687e-05 3.98659795e-05 1.97537211e-05
      1.17546824e-05 -1.33407689e-20 -1.33407689e-20 -1.33407689e-20
      -6.25981193e-06 4.16080911e-06 1.65925740e-05 2.03382333e-05
      2.28592876e-06 0. 0. 0. 0. 0. 0. 0. 2.81503981e-06 1.95477060e-05
      -1.18696307e-05 -4.12920969e-07 2.63177640e-07 0. 0.
      -3.04947680e-05 -4.20503638e-05 -4.49709114e-05 -5.09144120e-05
      -5.09144120e-05 -6.54075047e-05 -5.98103652e-05 -3.66491950e-05
      -3.66491950e-05 -3.07056944e-05 -2.77096078e-05 -5.13160057e-06
      1.33287313e-05 1.37585221e-05 3.27366906e-05 3.84311898e-05
      1.89962720e-05 1.50053870e-06 -1.33407689e-20 -1.33407689e-20
      -1.33407689e-20 -1.21577405e-05 9.50994945e-06 1.66215832e-05
      1.92586594e-05 2.28592876e-06 0. 0. 0. 0. 0. 0. 0. 8.31615853e-06
      1.63409040e-05 -2.53695835e-05 -3.32501077e-06 0. -1.02541435e-05
      -3.04947680e-05 -4.20503638e-05 -4.49709114e-05 -4.40677795e-05
      -4.73123437e-05 -6.86763815e-05 -8.16201064e-05 -4.84921948e-05
      -3.66491950e-05 -3.07056944e-05 -1.89962720e-05 -1.29437203e-05
      4.18416278e-07 3.10359565e-06 1.55302296e-05 2.35414573e-05
      2.51239962e-05 2.92504155e-05 7.45899388e-06 -1.33407689e-20
      -1.33407689e-20 -1.33407689e-20 1.48782306e-06 -2.03708851e-06
      9.46811542e-06 2.47673452e-05 1.36339895e-06 0. 0. 0. 0. 0. 0. 0.
      0. 4.63970127e-06 6.52342669e-06 2.32597613e-05 2.81503981e-06
      -8.50313063e-06 -1.91765976e-05 -4.49709114e-05 -4.76698442e-05
      -4.73123437e-05 -6.65748521e-05 -7.03019323e-05 -7.03019323e-05
      -6.73813847e-05 -5.11837425e-05 -5.11837425e-05 -3.34217693e-05
      -2.19785888e-05 -3.07321934e-05 -2.92758305e-05 -1.51601298e-05
      -1.74139177e-06 1.68708666e-05 1.76328740e-05 5.95845495e-06
      -1.33407689e-20 -1.33407689e-20 -1.33407689e-20 -9.18035948e-06
      -3.80910228e-06 -1.13289325e-05 3.49372976e-06 -7.55905512e-06
      -8.92245407e-06 0. 0. 0. 0. 0. 0. 0. 4.17543288e-06 1.58762316e-06
      3.13226519e-05 1.90897663e-06 0. -1.48450126e-05 -4.76698442e-05
      -5.09144120e-05 -6.71808375e-05 -8.16201064e-05 -8.16201064e-05
      -8.16201064e-05 -7.89211699e-05 -6.43584353e-05 -4.57164970e-05
      -4.40909462e-05 -4.40909462e-05 -4.73355140e-05 -4.11135661e-05
      -2.85188835e-05 -1.48707149e-05 6.61752529e-06 9.32811872e-06
      5.95845495e-06 -1.33407689e-20 -1.33407689e-20 -1.33407689e-20
      -1.12155503e-05 -2.50326739e-05 -1.54243517e-05 -1.54680110e-05
      -2.30283476e-05 -2.71301269e-05 3.60206695e-06 0. 0. 0. 0.
      1.90897663e-06 1.90897663e-06 6.89832132e-06 -5.95950542e-06
      4.69209635e-06 -2.15723139e-05 -1.13181704e-05 -2.31611721e-05
      -4.48548053e-05 -6.28652560e-05 -7.88050675e-05 -8.16201064e-05
      -8.16201064e-05 -8.16201064e-05 -7.89211699e-05 -7.89211699e-05
      -6.17270198e-05 -6.44819011e-05 -6.44819011e-05 -6.44819011e-05
      -6.40634898e-05 -5.44109571e-05 -3.17539270e-05 -9.49214427e-06
      1.86912484e-06 -1.33407689e-20 -1.33407689e-20 -1.33407689e-20
      -1.33407689e-20 -9.18035948e-06 -3.38862264e-05 -3.33672106e-05
      -4.69163315e-05 -3.24045322e-05 -5.41567206e-05 -2.60447305e-05
      3.60206695e-06 3.60206695e-06 0. 0. 0. 1.90897663e-06
      5.89562751e-06 -1.95609682e-05 -7.25258678e-06 -1.13181704e-05
      -1.13181704e-05 -2.21786086e-05 -4.76698442e-05 -6.86763815e-05
      -8.16201064e-05 -8.16201064e-05 -8.16201064e-05 -8.16201064e-05
      -8.16201064e-05 -8.16201064e-05 -7.86240198e-05 -7.86240198e-05
      -7.31392938e-05 -7.31392938e-05 -7.59635004e-05 -7.34581336e-05
      -5.10642822e-05 -2.26136181e-05 -3.64932771e-06 -1.33407689e-20
      -1.33407689e-20 -1.33407689e-20 -1.33407689e-20 -9.18035948e-06
      -1.89734328e-05 -3.87249383e-05 -5.38806307e-05 -4.61645286e-05
      -6.34538083e-05 -3.41434206e-05 -2.03934178e-05 -1.50053870e-06 0.
      0. 0. 0. 0. -1.35155551e-05 0. 0. -1.13181704e-05 -1.13181704e-05
      -1.69376508e-05 -3.79441917e-05 -5.08879093e-05 -5.08879093e-05
      -5.08879093e-05 -5.08879093e-05 -5.08879093e-05 -5.08879093e-05
      -5.08879093e-05 -5.08879093e-05 -5.08879093e-05 -5.08879093e-05
      -5.00815368e-05 -5.47936288e-05 -3.05250142e-05 -2.71654244e-05
      -2.15108630e-05 -1.36339895e-06 -1.33407689e-20 -1.33407689e-20
      -4.18326032e-08 -9.18035948e-06 -8.05326454e-06 -1.01596179e-05
      -2.98157101e-05 -3.16292499e-05 -3.37748716e-05 -2.98025607e-05
      -1.14709628e-05 -1.50053870e-06 0. 0. 0. 0. 0. -5.42239650e-06 0.
      0. -3.00201145e-06 0. -5.61948127e-06 -3.59036094e-05
      -3.95697389e-05 -3.63251747e-05 -3.63251747e-05 -3.63251747e-05
      -3.63251747e-05 -3.63251747e-05 -4.76433452e-05 -3.95697389e-05
      -3.95697389e-05 -3.95697389e-05 -3.91817812e-05 -4.45394835e-05
      -3.00076135e-05 -1.76046592e-06 -9.00451687e-06 -1.36339895e-06
      -1.33407689e-20 -1.33407689e-20 -1.33407689e-20 -9.18035948e-06
      -2.02266820e-05 -9.89644104e-06 -1.42812917e-06 -2.18725636e-05
      -3.20917898e-05 -2.58952750e-05 -1.14709628e-05 0. 0. 0. 0. 0. 0.
      -2.99608564e-06 0. 0. 0. 0. -2.69893417e-06 -1.11797463e-05
      -2.73520745e-05 -1.86387406e-05 -1.86387406e-05 -1.86387406e-05
      -1.86387406e-05 -2.26507091e-05 -1.86387406e-05 -1.86387406e-05
      -1.86387406e-05 -1.86387406e-05 -1.82507811e-05 -1.14397626e-05
      -2.25665872e-07 1.96326382e-05 -1.32061077e-05 6.77184119e-07
      -1.33407689e-20 -1.33407689e-20 -1.33407689e-20 -1.03519706e-05
      -1.66689060e-05 -5.58784814e-06 1.26506420e-05 -2.80798195e-05
      -1.65938218e-05 -1.09743396e-05 2.10152825e-06 3.60206695e-06
      3.60206695e-06 0. 0. 0. 0. 0. 0. 0. 0. 0. -2.69893417e-06
      -1.11797463e-05 -1.71382017e-05 -1.71382017e-05 -1.71382017e-05
      -1.71382017e-05 -1.71382017e-05 -1.71382017e-05 -1.71382017e-05
      -1.71382017e-05 -1.71382017e-05 -1.71382017e-05 -1.07917876e-05
      -5.48130720e-06 9.45945089e-07 3.00423308e-05 4.50840759e-07
      -6.92263143e-07 -1.36339895e-06 -1.36339895e-06 -4.18326032e-08
      -1.03519706e-05 -1.81302730e-05 1.81053929e-05 1.81907544e-05
      9.98789073e-06 -4.83929944e-06 -4.87874468e-06 0. 0. 0. 0. 0. 0.
      0. 0. 0. 0. 0. 0. 0. 0. -2.99608564e-06 -2.99608564e-06
      -2.99608564e-06 -2.99608564e-06 -8.48081163e-06 -8.48081163e-06
      -2.99608564e-06 -2.99608564e-06 -2.99608564e-06 -2.99608564e-06
      -2.60812703e-06 -2.14787815e-06 1.40683851e-05 3.35194018e-05
      1.06810257e-05 -4.90197351e-07 -4.96546591e-06 -3.60206695e-06
      -3.60206695e-06 -1.27824260e-05 3.87991122e-06 -1.59914578e-06
      2.25490567e-05 2.01867097e-05 -2.04569210e-06 1.36339895e-06 0. 0.
      0. 0. 0. 0. 0. 0. 0. 0. 0. 0. 0. 0. 0. 0. 0. 0. 0. 0. 0. 0. 0. 0.
      3.87958664e-07 8.48207549e-07 1.88384001e-05 2.33621595e-05
      2.88383399e-05 -7.53374991e-07 -6.87444253e-06 -5.51104358e-06
      -3.64389962e-06 -1.27824260e-05 1.18474927e-05 5.26196754e-06
      3.04962796e-05 2.78356383e-05 1.84268993e-05 1.36339895e-06
      1.36339895e-06 0. 0. 0. 0. 0. 0. 0. 0. 0. 0. 0. 0. 0. 0. 0. 0. 0.
      0. 0. 0. 0. 0. 0. 3.87958664e-07 4.29791243e-07 9.83034715e-06
      1.81681062e-05 2.75205475e-05 9.63775710e-06 -5.77902313e-07
      4.47992261e-06 -4.04930006e-06 7.11833627e-06 5.83144470e-07
      2.30603437e-05 2.60719225e-05 5.79251036e-06 4.96310759e-06 0. 0.
      0. 0. 0. 0. 0. 0. 0. 0. 0. 0. 0. 0. 0. 0. 0. 0. 0. 0. 0. 0. 0. 0.
      0. 3.87958664e-07 4.29791243e-07 9.18035948e-06 2.30073711e-05
      2.50450394e-05 -1.79798246e-06 3.04583341e-06 1.67148355e-05
      2.64989922e-05 1.61583976e-05 1.50995111e-05 1.05812333e-05
      1.17787276e-05 1.36339895e-06 0. 0. 0. 0. 0. 0. 0. 0. 0. 0. 0. 0.
      0. 0. 0. 0. 0. 0. 0. 0. 0. 0. 0. 0. 0. 0. 3.87958664e-07
      4.29791243e-07 1.57348040e-05 2.25454514e-05 1.86161615e-05
      1.81326493e-06 -4.20369634e-06 -3.03208549e-06 6.26626615e-06
      2.13911630e-06 -3.97271378e-06 -1.15016874e-05 -1.50053870e-06 0.
      0. 0. 0. 0. 0. 0. 0. 0. 0. 0. 0. 0. 0. 0. 0. 0. 0. 0. 0. 0. 0. 0.
      0. 0. 0. 0. 3.87958664e-07 3.87958664e-07 1.56929709e-05
      1.27724243e-05 1.98046837e-05 1.13238730e-05 5.36541756e-06
      5.36541756e-06 5.53090740e-06 -3.21966036e-06 -6.20861147e-06
      -1.29437203e-05 0. 0. 0. 0. 0. 0. 0. 0. 0. 0. 0. 0. 0. 0. 0. 0. 0.
      0. 0. 0. 0. 0. 0. 0. 0. 0. 0. 0. 0. 3.87958664e-07 9.13852637e-06
      2.54241659e-05 2.27252312e-05 1.97291465e-05 1.38564610e-05
      1.38564610e-05 5.10589325e-06 -1.44855176e-06 1.25038252e-06
      -5.48472599e-06 0. 0. 0. 0. 0. 0. 0. 0. 0. 0. 0. 0. 0. 0. 0. 0. 0.
      0. 0. 0. 0. 0. 0. 0. 0. 0. 0. 0. 0. 0. 8.75056776e-06
      8.75056776e-06 1.57828272e-05 1.27867424e-05 -2.42917804e-06
      -2.42917804e-06 -1.44855176e-06 -5.69501981e-06 -2.99608564e-06 0.
      0. 0. 0. 0. 0. 0. 0. 0. 0. 0. 0. 0. 0. 0. 0. 0. 0. 0. 0. 0. 0. 0.
      0. 0. 0. 0. 0. 0. 0. 0. 0. 0. 0. 0. -2.99608564e-06 0. 0. 0. 0. 0.
      0. 0. 0. 0. 0. 0. 0. 0. 0. 0. 0.</_>
    <_>
      0. 0. 0. 0. 0. 0. 0. 0. 0. 0. 0. -1.42264139e-06 0.
      -1.72281295e-06 -1.72281295e-06 -1.72281295e-06 -1.72281295e-06
      -1.72281295e-06 -5.09159509e-06 -3.36878179e-06 -6.51423625e-06
      -6.51423625e-06 -6.51423625e-06 -6.51423625e-06 -6.51423625e-06
      -6.51423625e-06 -6.51423625e-06 -3.14545446e-06 -5.09159509e-06
      -1.72281295e-06 0. 0. 0. 0. 0. 0. 0. 0. 0. 0. 0. 0. 0. 0. 0. 0. 0.
      0. 0. 0. 0. 0. -4.79142318e-06 -7.82011193e-06 -8.40310986e-06
      -8.40310986e-06 -8.40310986e-06 -8.40310986e-06 -8.40310986e-06
      -8.40310986e-06 -7.82011193e-06 -7.82011193e-06 -7.82011193e-06
      -7.82011193e-06 -6.51423625e-06 -6.51423625e-06 -6.51423625e-06
      -7.09723417e-06 -7.09723417e-06 -7.09723417e-06 -5.09159509e-06
      -5.09159509e-06 0. 0. 0. 0. 0. 0. 0. 0. 0. 0. 0. 0. 0. 0. 0. 0. 0.
      0. 0. 0. -7.66597441e-06 -1.15015609e-05 -1.11980025e-05
      -1.11980025e-05 -1.11980025e-05 -1.11980025e-05 -1.11980025e-05
      -1.30412764e-05 -1.11980025e-05 -1.11980025e-05 -1.01423730e-05
      -1.15015609e-05 -1.15015609e-05 -1.15015609e-05 -1.15015609e-05
      -1.15015609e-05 -1.01423730e-05 -1.01423730e-05 -8.15099156e-06
      -7.84743315e-06 0. 0. 0. 0. 0. 0. 0. 0. 0. 0. 0. 0. 0. 0. 0. 0. 0.
      0. 0. -5.68739665e-07 -8.91107902e-06 -1.27466656e-05
      -1.63222503e-05 -1.63222503e-05 -1.63222503e-05 -1.63222503e-05
      -1.63222503e-05 -1.63222503e-05 -1.63222503e-05 -9.56997701e-06
      -9.56997701e-06 -9.56997701e-06 -1.63222503e-05 -1.63222503e-05
      -1.63222503e-05 -1.63222503e-05 -1.63222503e-05 -1.50771457e-05
      -1.30857652e-05 -1.17265772e-05 -5.82998041e-07 0. 0. 0. 0. 0. 0.
      0. 0. 0. 0. 0. 0. 0. 0. 0. 0. 0. 0. -1.81384439e-06
      -8.91107902e-06 -1.45899403e-05 -2.02153733e-05 -1.99410333e-05
      -1.65965903e-05 -1.99410333e-05 -1.99410333e-05 -1.99410333e-05
      -1.99410333e-05 -8.89807507e-06 -6.01946431e-06 -8.54085101e-06
      -6.08426717e-06 -1.03101484e-05 -1.70624226e-05 -1.99410333e-05
      -1.99410333e-05 -1.99410333e-05 -1.67045473e-05 -1.17265772e-05
      -5.82998041e-07 0. 0. 0. 0. 0. 0. 0. 0. 0. 0. 0. 0. 0. 0. 0. 0. 0.
      0. -1.81384439e-06 -9.48897741e-06 -1.84830624e-05 -2.02153733e-05
      -2.02153733e-05 -2.02153733e-05 -2.02153733e-05 -2.50953417e-05
      -1.36951585e-05 -6.45347336e-06 -1.92343305e-06 -4.87443458e-06
      -8.11404061e-06 -8.11404061e-06 -1.24047247e-05 -2.23549923e-05
      -2.02153733e-05 -2.02153733e-05 -1.89702696e-05 -1.67045473e-05
      -1.53453602e-05 -5.82998041e-07 0. 0. 0. 0. 0. 0. 0. 0. 0. 0. 0.
      0. 0. 0. 0. 0. -9.54827010e-06 -9.54827010e-06 -2.92803197e-05
      -3.79958437e-05 -4.75729285e-05 -4.84030243e-05 -4.84030243e-05
      -3.87721411e-05 -3.23345412e-05 -2.01758940e-05 -1.47683086e-05
      -1.24829776e-05 -7.68549944e-06 -7.68549944e-06 -1.29682530e-05
      -1.29682530e-05 -2.32559705e-05 -3.47192981e-05 -3.93980663e-05
      -1.87866772e-05 -1.89702696e-05 -1.49817351e-05 -1.02537651e-05
      -5.82998041e-07 0. 0. 0. 0. 0. 0. 0. 0. 0. 0. 0. 0. 0. 0. 0. 0.
      -9.54827010e-06 -2.61388650e-05 -2.87931580e-05 -3.57685276e-05
      -3.72874601e-05 -4.02525839e-05 -3.55842822e-05 -2.95243008e-05
      -2.65379640e-05 -1.65855090e-05 -1.34373477e-05 -1.32843606e-05
      -1.32843606e-05 -1.32843606e-05 -1.58252806e-05 -1.58252806e-05
      -1.99105853e-05 -3.35177137e-05 -3.88529079e-05 -3.56349701e-05
      -1.99335118e-05 -1.60443997e-05 -1.03070770e-05 0. 0. 0. 0. 0. 0.
      0. 0. 0. 0. 0. 0. 0. 0. 0. 0. 0. -1.10287156e-05 -2.44037838e-05
      -1.44503956e-05 -1.76449375e-05 -2.63447619e-05 -2.20540787e-05
      -1.99806218e-05 -1.61715943e-05 -1.24168109e-05 -7.32521585e-06
      -3.21018956e-06 -2.42254487e-06 -3.73994294e-06 -2.85696206e-06
      -2.85696206e-06 -9.39834172e-06 -2.11028182e-05 -3.11954500e-05
      -3.46873712e-05 -2.88043702e-05 -1.34064712e-05 -1.00860989e-05
      -5.65465189e-06 0. 0. 0. 0. 0. 0. 0. 0. 0. 0. 0. 0. 0. 0. 0.
      1.15288844e-06 6.16652733e-06 1.44481839e-06 -1.54252648e-05
      -6.65248308e-06 -5.65746859e-06 -1.45821487e-05 -1.39716358e-05
      -1.34418824e-05 -1.34418824e-05 -1.02053964e-05 -6.83661483e-06
      6.00005842e-06 7.73236934e-06 1.13511524e-05 7.54220355e-06
      2.35061498e-06 4.46633931e-06 -7.64970537e-06 -2.13967905e-05
      -3.00505471e-05 -2.42473816e-05 -1.13706019e-05 -4.43144654e-06 0.
      0. 0. 0. 0. 0. 0. 0. 0. 2.01164630e-06 0. 0. 0. 0. 5.01363911e-06
      5.01363911e-06 7.96464064e-06 6.84257429e-06 5.08264066e-06
      -1.44589549e-05 -5.01191289e-06 -5.66451627e-06 -1.34418824e-05
      -1.34418824e-05 -3.89361230e-06 -8.46389355e-07 4.46921513e-06
      9.56081021e-06 1.94414515e-05 2.77215659e-05 3.63491672e-05
      3.63491672e-05 3.45443877e-05 3.00386619e-05 2.28495392e-05
      7.99520694e-06 -8.55045164e-06 -1.53454421e-05 -7.47747936e-06
      -4.43144654e-06 0. 0. 0. 0. 0. 0. 0. 0. 0. 4.24063592e-06 0. 0. 0.
      7.96464064e-06 7.96464064e-06 7.96464064e-06 1.51738623e-05
      6.59190118e-06 5.08264066e-06 -8.52770063e-06 -1.68940278e-06
      -3.43836359e-06 -1.34418824e-05 -9.63293405e-06 3.00046668e-06
      1.94960303e-05 2.95546597e-05 3.46462548e-05 4.62592070e-05
      4.62592070e-05 4.62592070e-05 4.62592070e-05 4.62592070e-05
      3.62748870e-05 2.81883586e-05 1.00372836e-05 -3.31993670e-06
      -8.90982483e-06 0. 2.95100153e-06 2.95100153e-06 2.95100153e-06 0.
      0. 0. 0. 0. 0. 2.95100153e-06 5.02435023e-06 0. 0. 0.
      2.95100153e-06 7.96464064e-06 9.60334455e-06 1.51738623e-05
      6.15534464e-06 5.72093177e-06 -2.08473534e-06 5.44904015e-06
      4.57995793e-06 -5.08219768e-21 9.54827010e-06 1.74162324e-05
      2.60438337e-05 2.59891804e-05 3.38520367e-05 5.08580742e-05
      5.37366868e-05 5.37366868e-05 5.37366868e-05 5.37366868e-05
      5.37366868e-05 4.28981984e-05 2.53827257e-05 1.59319970e-05
      2.61468335e-06 0. 2.95100153e-06 2.95100153e-06 2.95100153e-06 0.
      0. 0. 0. 0. 0. 2.95100153e-06 -1.18002408e-05 0. 0. 0.
      2.95100153e-06 2.95100153e-06 9.60334455e-06 1.52379562e-05
      7.12165411e-06 4.56804310e-06 -6.11397581e-07 7.49111769e-06
      1.00035186e-05 -5.08219768e-21 6.66965934e-06 1.72536568e-06
      1.53738620e-05 1.88846880e-05 3.00362644e-05 4.84014927e-05
      5.37366868e-05 5.37366868e-05 5.37366868e-05 5.37366868e-05
      5.37366868e-05 4.92341278e-05 2.64257778e-05 1.47791079e-05
      1.05793242e-05 4.95517179e-06 0. 0. 0. 0. 0. 0. 0. 0. 0.
      3.48075469e-06 -1.19623483e-05 8.72702685e-07 0. 0. 2.95100153e-06
      2.95100153e-06 2.95100153e-06 5.11945882e-06 -1.26940176e-06
      -2.42985197e-06 -5.96593418e-06 -3.37223173e-06 -7.09252799e-06
      -1.37120460e-05 -1.41696974e-05 -6.30173508e-06 1.29049404e-05
      1.65993570e-05 2.75458697e-05 4.92066465e-05 5.37366868e-05
      5.37366868e-05 5.37366868e-05 5.37366868e-05 5.37366868e-05
      4.92341278e-05 2.55747873e-05 1.59319970e-05 6.33260242e-06
      2.95100153e-06 0. 0. 0. 0. 0. 0. 9.66309472e-07 9.66309472e-07
      6.54780388e-06 1.11814470e-05 -1.23165091e-05 -7.66001449e-07 0.
      0. 2.95100153e-06 2.95100153e-06 2.95100153e-06 7.59085651e-06
      -6.38886058e-06 -1.83893353e-05 -1.54362751e-05 -1.51748072e-05
      -3.39282742e-05 -3.97300100e-05 -2.76931260e-05 -1.70335716e-05
      5.89899219e-06 1.02311215e-05 1.76690482e-05 4.04938655e-05
      4.67562168e-05 4.80620947e-05 4.80620947e-05 4.86450917e-05
      5.37366868e-05 4.92341278e-05 3.60442536e-05 1.88946415e-05
      8.33677313e-06 3.91731101e-06 0. 0. 0. 0. 0. 0. 0. 0. 0.
      1.00285588e-05 -1.72513974e-05 -1.73231092e-06 0. 0. 0. 0. 0. 0.
      -1.29366645e-05 -1.36463095e-05 -2.71337867e-05 -3.21422303e-05
      -4.44042271e-05 -5.06515571e-05 -3.81522841e-05 -1.60895452e-05
      -3.78131995e-06 9.32855801e-06 1.56776678e-05 2.85065471e-05
      3.73418079e-05 3.92282782e-05 3.56094970e-05 3.56094970e-05
      3.88754124e-05 3.43728534e-05 3.28651222e-05 1.86410871e-05
      1.38801652e-05 3.91731101e-06 0. 0. 0. 0. 0. 0. 2.95100153e-06
      2.95100153e-06 2.95100153e-06 5.07019922e-06 -1.12980824e-05
      -1.73231092e-06 0. 0. 0. 0. 0. 0. -1.39797166e-05 -2.18476798e-05
      -3.53351570e-05 -3.49900620e-05 -4.36332739e-05 -5.16946093e-05
      -5.16946093e-05 -4.41804950e-05 -4.25417929e-05 -2.04861008e-05
      -1.25316046e-05 4.12784129e-06 1.53454421e-05 1.53454421e-05
      1.65905458e-05 2.61388159e-05 3.50407572e-05 3.11069380e-05
      1.97067566e-05 1.22471902e-05 4.05042010e-06 8.34795173e-06
      9.66309472e-07 0. 0. 0. 0. 0. 2.95100153e-06 2.95100153e-06
      2.95100153e-06 1.06516936e-05 -2.25317604e-06 0. 0. 0. 0. 0. 0. 0.
      -1.39797166e-05 -2.18476798e-05 -3.53351570e-05 -4.04009188e-05
      -4.92941363e-05 -5.37366868e-05 -5.37366868e-05 -5.37366868e-05
      -4.62225726e-05 -4.22285193e-05 -2.00090835e-05 -8.33898866e-06
      -5.08219768e-21 -5.08219768e-21 -5.08219768e-21 1.09139946e-05
      1.09139946e-05 6.68577695e-06 6.64770914e-06 9.46536147e-06
      4.87630950e-06 -7.59964087e-06 -5.50765617e-06 0. 0. 0. 0. 0.
      2.95100153e-06 2.95100153e-06 2.95100153e-06 9.49880541e-06
      -1.19303622e-05 6.54780388e-06 0. 0. 0. 2.95100153e-06
      2.95100153e-06 -9.54827010e-06 -1.39797166e-05 -2.18476798e-05
      -3.53351570e-05 -4.04009188e-05 -4.69154402e-05 -5.37366868e-05
      -5.37366868e-05 -5.37366868e-05 -5.27703778e-05 -4.22285193e-05
      -2.11619717e-05 -8.94950244e-06 -5.08219768e-21 -5.08219768e-21
      -5.08219768e-21 -5.08219768e-21 -5.08219768e-21 -4.50255811e-06
      -2.11013457e-06 -1.32025650e-06 -5.02238254e-06 -2.82438259e-06
      -1.16909087e-05 -5.37230426e-06 0. 0. 0. 0. 2.95100153e-06
      2.95100153e-06 2.95100153e-06 3.91731101e-06 -4.09655831e-06
      6.54780388e-06 0. 0. 0. 0. 0. 0. -1.39797166e-05 -2.18476798e-05
      -2.67075557e-05 -3.70321395e-05 -4.70264058e-05 -5.37366868e-05
      -5.37366868e-05 -5.37366868e-05 -5.37366868e-05 -4.62225726e-05
      -3.42393614e-05 -9.49187688e-06 -3.80894880e-06 -5.08219768e-21
      -5.08219768e-21 -5.08219768e-21 -5.08219768e-21 -4.50255811e-06
      -1.59027404e-05 3.02013092e-07 -1.35661539e-05 -9.28898407e-06
      -9.35637672e-06 -1.19765782e-05 -4.20178094e-06 0. 0. 0. 0. 0. 0.
      9.16844215e-07 -5.70585007e-06 9.66309472e-07 0. 0. 0. 0. 0. 0.
      -4.43144654e-06 -1.65905458e-05 -1.71592856e-05 -1.88562681e-05
      -2.04657008e-05 -2.22513245e-05 -1.57035211e-05 -1.57035211e-05
      -2.35194802e-05 -2.35194802e-05 -1.09800703e-05 8.80026073e-06
      1.81376399e-05 8.06133266e-06 5.35109348e-06 -5.08219768e-21
      -5.08219768e-21 -4.50255811e-06 -1.59027404e-05 -1.83593238e-05
      -1.59880165e-05 -1.46069524e-05 -1.42441550e-05 -1.16909087e-05
      -8.94788900e-06 0. 0. 0. 0. 0. 0. 9.49880541e-06 -1.84441324e-05
      2.53392341e-06 0. 0. 0. 0. 0. 2.95100153e-06 2.95100153e-06 0.
      -1.81384439e-06 -2.08818437e-06 -2.08818437e-06 -2.08818437e-06
      -2.08818437e-06 4.45961950e-06 4.45961950e-06 4.73395949e-06
      7.15768238e-07 1.57785053e-05 2.17929519e-05 2.53321487e-05
      2.53321487e-05 1.50951137e-05 6.91202013e-06 -4.50255811e-06
      -1.41334431e-05 -1.83593238e-05 -2.51010824e-05 -1.76529848e-05
      -2.36386732e-05 -1.67045473e-05 -1.02537651e-05 0. 0. 0. 0. 0. 0.
      2.95100153e-06 4.88865271e-06 1.09846278e-05 0. 0. 0. 0. 0.
      2.95100153e-06 2.95100153e-06 0. 0. 0. 0. 0. 0. 0. 0.
      2.11873910e-07 6.27185545e-06 3.49153925e-05 4.25161052e-05
      4.06234794e-05 2.67547894e-05 1.81271898e-05 1.46781767e-05
      2.29849866e-06 -1.41334431e-05 -1.83593238e-05 -3.28017741e-05
      -2.66301322e-05 -2.50460034e-05 -1.25837969e-05 -1.19765782e-05
      -5.06874585e-06 0. 0. 0. 0. 0. -6.59726902e-06 4.35889979e-06
      9.73638635e-06 0. 0. 0. 0. 0. 0. 0. 0. 0. 0. 0. 0. 0. 0. 0. 0.
      6.27185545e-06 3.03523320e-05 4.37612107e-05 5.05796270e-05
      3.14605750e-05 1.81271898e-05 1.67045473e-05 5.80451933e-06
      -1.24011322e-05 -2.33837818e-05 -2.63280745e-05 -3.28683163e-05
      -2.14030315e-05 -1.40642424e-05 -1.03847642e-05 -3.18227376e-06 0.
      0. 0. 0. 0. -6.59726902e-06 -1.43542811e-05 5.68083897e-06 0. 0.
      0. 0. 0. 0. 0. 0. 0. 0. 0. 0. 0. 0. 0. 2.11873910e-07
      6.27185545e-06 2.84838079e-05 3.69244517e-05 4.55659901e-05
      3.51675662e-05 3.14605750e-05 1.81271898e-05 7.11039502e-06
      -7.33238676e-06 -2.33837818e-05 -2.33837818e-05 -3.10781725e-05
      -2.01669936e-05 -1.04213677e-05 -8.73990757e-06 -5.99688792e-06
      2.95100153e-06 0. 0. 0. 0. -9.54827010e-06 -3.32171794e-06
      6.21059189e-06 0. 0. 0. 0. 0. 0. 0. 0. 0. 0. 0. 0. 0. 0. 0.
      2.11873910e-07 6.27185545e-06 2.19360045e-05 3.03766465e-05
      3.42129388e-05 3.01539258e-05 2.58790078e-05 1.84015298e-05
      1.22019901e-05 -7.40195128e-06 -1.83593238e-05 -2.04327807e-05
      -2.05363158e-05 -2.31179947e-05 -1.24060598e-05 -1.11611553e-05
      -2.20193942e-06 -5.82998041e-07 0. 0. 0. 0. 0. -4.70941768e-06 0.
      0. 0. 0. 0. 0. 0. 0. 0. 0. 0. 0. 0. 0. 0. 0. 0. 6.27185545e-06
      1.73314365e-05 2.64593364e-05 2.30754304e-05 2.93026442e-05
      2.58790078e-05 1.81271898e-05 1.22019901e-05 -9.17746002e-06
      -1.83593238e-05 -2.10432936e-05 -1.90235860e-05 -1.18975613e-05
      -5.02361172e-06 -8.21015419e-06 3.26011764e-06 0. 0. 0. 0. 0. 0.
      6.60049153e-08 0. 0. 0. 0. 0. 0. 0. 0. 0. 0. 0. 0. 0. 0. 0. 0. 0.
      6.27185545e-06 1.73314365e-05 3.00628471e-05 3.02463686e-05
      2.93026442e-05 1.64339235e-05 1.81271898e-05 8.83320808e-06
      -1.23799218e-05 -1.83593238e-05 -2.04327807e-05 -1.49657972e-05
      -1.48485624e-05 -6.82172458e-06 -5.18735987e-06 3.26011764e-06
      5.01363911e-06 0. 0. 0. 0. 0. -1.15130490e-06 9.66309472e-07 0. 0.
      0. 0. 0. 0. 0. 0. -8.62760044e-06 -8.62760044e-06 0. 0. 0. 0. 0.
      2.11873910e-07 1.30241297e-05 1.79419494e-05 1.39667727e-05
      1.94995700e-05 1.46048933e-05 1.64339235e-05 1.31135503e-05
      3.49161201e-06 -1.29629198e-05 -1.83593238e-05 -1.08845106e-05
      -1.29237196e-05 -7.12352494e-06 1.52419216e-06 4.69246970e-06
      6.74087232e-06 7.96464064e-06 2.95100153e-06 0. 0. 0. 0. 0.
      9.02215049e-07 0. 0. 0. 0. 0. -9.54827010e-06 -2.18476798e-05
      -2.18476798e-05 -3.04752793e-05 -2.26073171e-05 -2.26073171e-05
      -1.66778300e-05 -8.62760044e-06 -8.62760044e-06 0. -8.41572637e-06
      -1.19040160e-05 -4.66536721e-06 -4.12433025e-07 2.59595390e-06
      1.04059718e-05 7.76493744e-06 4.12181544e-06 4.53425685e-07
      -1.32664782e-05 -1.17620557e-05 -1.38355117e-05 6.20841433e-07
      3.10675387e-06 -7.02778198e-06 1.80609914e-06 4.65683570e-06
      5.01363911e-06 5.01363911e-06 0. 0. 0. 0. 0. 0. 0. 0. 0. 0. 0.
      -9.54827010e-06 -2.18476798e-05 -2.48937122e-05 -3.35213117e-05
      -3.35213117e-05 -3.40940642e-05 -3.40940642e-05 -3.40940642e-05
      -3.40940642e-05 -3.40940642e-05 -2.62261001e-05 -1.99542446e-05
      -1.61521129e-05 -1.16220717e-05 -9.71445024e-06 1.50165579e-06
      2.90089156e-06 2.00317416e-08 -1.12966754e-05 -1.70844451e-05
      -1.17620557e-05 -5.96754990e-06 5.05228809e-06 1.55752460e-07
      -2.36447272e-06 7.43274541e-06 5.54339249e-06 5.01363911e-06
      5.01363911e-06 5.01363911e-06 0. 0. 0. 0. 0. 0. 0. 0. 0. 0.
      -9.54827010e-06 -2.18476798e-05 -2.48937122e-05 -3.35213117e-05
      -3.48271897e-05 -4.51342639e-05 -4.21656441e-05 -4.21656441e-05
      -3.98503362e-05 -3.71400965e-05 -3.69282207e-05 -2.41159651e-05
      -1.56985097e-05 -1.36250519e-05 -1.27228377e-05 -7.69073540e-06
      -1.09272523e-05 -1.31532561e-05 -2.91892798e-06 -7.53617451e-06
      -3.13445457e-06 6.04844490e-06 4.00923545e-06 6.21443132e-06
      4.52802396e-06 8.29971032e-06 7.54756229e-06 5.54339249e-06
      5.01363911e-06 5.01363911e-06 0. 0. 0. 0. 0. 0. 0. 0. 0. 0. 0.
      -2.18476798e-05 -2.61388159e-05 -2.69818956e-05 -4.36516348e-05
      -5.05001990e-05 -5.05001990e-05 -5.05001990e-05 -4.48307073e-05
      -4.21656441e-05 -4.19537682e-05 -3.58937868e-05 -2.42236929e-05
      -1.79259150e-05 -2.11566567e-05 -1.94595668e-05 -7.81767449e-06
      -4.96417397e-06 -1.25498136e-05 5.09233928e-07 7.09149754e-06
      4.61974832e-06 5.37135202e-06 4.02276601e-06 1.03770381e-05
      6.87853799e-06 7.18209640e-06 5.54339249e-06 5.01363911e-06 0. 0.
      0. 0. 0. 0. 0. 0. 0. 0. 0. 0. -7.86796227e-06 -2.22761100e-05
      -2.69818956e-05 -3.65343185e-05 -4.45403457e-05 -4.32952402e-05
      -4.18726013e-05 -5.05001990e-05 -4.18726013e-05 -4.16607254e-05
      -3.56007440e-05 -2.53593462e-05 -1.10974433e-05 -2.06733730e-05
      -1.20457717e-05 -2.94602319e-06 -3.76266144e-06 2.70383339e-06
      -1.74777838e-07 -1.82492863e-06 3.77045080e-06 1.98068847e-06
      8.49862045e-06 6.01157308e-06 7.18209640e-06 7.18209640e-06
      5.01363911e-06 5.01363911e-06 5.01363911e-06 0. 0. 0. 0. 0. 0. 0.
      0. 0. 0. 0. 0. -1.81384439e-06 -5.13421719e-06 -1.46866396e-05
      -2.75105849e-05 -3.11293697e-05 -3.11293697e-05 -3.11293697e-05
      -3.11293697e-05 -3.09174939e-05 -1.81052383e-05 -1.21595313e-05
      -8.65737820e-06 -8.65737820e-06 -8.65737820e-06 3.87888667e-06
      7.49766923e-06 -2.11845872e-06 -4.15367504e-06 -5.02075773e-06
      1.17118032e-06 4.65117591e-06 1.24490552e-05 7.18209640e-06
      6.65234302e-06 6.65234302e-06 6.65234302e-06 5.01363911e-06
      5.01363911e-06 5.01363911e-06 0. 0. 0. 0. 0. 0. 0. 0. 0. 0. 0.
      -1.81384439e-06 -2.08818437e-06 -9.90829631e-06 -1.65965903e-05
      -1.96426245e-05 -1.96426245e-05 -1.96426245e-05 -1.96426245e-05
      -1.96426245e-05 -6.61849390e-06 -1.28329930e-06 -6.72786200e-07
      1.40067050e-06 1.40067050e-06 9.11500592e-06 5.85709904e-06
      -2.13982639e-06 -6.78773495e-06 -5.99256282e-06 -4.95864333e-06
      3.24566099e-06 5.01363911e-06 5.01363911e-06 5.01363911e-06
      5.01363911e-06 6.65234302e-06 5.01363911e-06 5.01363911e-06 0. 0.
      0. 0. 0. 0. 0. 0. 0. 0. 0. 0. -1.81384439e-06 -2.08818437e-06
      -8.60242108e-06 -1.57296254e-05 -1.57296254e-05 -1.65965903e-05
      -1.65965903e-05 -1.65965903e-05 -1.65965903e-05 -1.05366089e-05
      -9.05723937e-07 4.23482925e-06 4.23482925e-06 5.96714017e-06
      5.96714017e-06 3.51973063e-06 -6.11115456e-06 -9.36733340e-06
      -2.82551900e-06 -1.72619980e-06 0. 0. 0. 0. 0. 0. 0. 0. 0. 0. 0.
      0. 0. 0. 0. 0. 0. 0. 0. 0. -1.81384439e-06 -1.81384439e-06
      -8.32808109e-06 -9.93751473e-06 -1.15710427e-05 -1.15710427e-05
      -1.21540406e-05 -1.30210055e-05 -1.30210055e-05 -1.30210055e-05
      -3.39012013e-06 -3.39012013e-06 4.52634055e-07 1.31959894e-06
      -4.79517723e-07 1.40935583e-06 6.83434973e-06 -1.42264139e-06 0.
      0. 0. 0. 0. 0. 0. 0. 0. 0. 0. 0. 0. 0. 0. 0. 0. 0. 0. 0. 0. 0.
      -1.81384439e-06 -1.81384439e-06 -3.23648578e-06 -3.23648578e-06
      -6.60526757e-06 -8.32808109e-06 -8.32808109e-06 -9.68726908e-06
      -9.99082658e-06 -9.99082658e-06 -9.99082658e-06 -9.99082658e-06
      -8.63163859e-06 -5.26285703e-06 -4.95929862e-06 -1.99138117e-06
      -1.42264139e-06 0. 0. 0. 0. 0. 0. 0. 0. 0. 0. 0. 0. 0. 0.</_>
    <_>
      -1.65744113e-05 -1.55656780e-05 -1.11359250e-05 -1.11359250e-05
      -1.27184949e-05 -1.55656780e-05 -2.47572061e-05 -2.50278717e-05
      -7.66446919e-06 0. -8.53012716e-06 -6.11348241e-06 -1.63985590e-06
      -1.46519881e-06 -1.77088930e-06 -8.53012716e-06 -8.53012716e-06
      -8.53012716e-06 -8.53012716e-06 -7.67068741e-06 -4.05650098e-06
      -7.67068741e-06 -1.02963322e-05 -1.61768476e-05 -1.53174060e-05
      -1.47116480e-05 -1.30027292e-05 -1.29454429e-05 -7.34571313e-06 0.
      0. 0. 0. 0. 0. 0. 0. 0. 0. 0. -1.48035224e-05 -1.03737684e-05
      -1.03737684e-05 -7.57743828e-06 -1.49553841e-06 -4.95550967e-06
      -8.72162218e-06 -1.13435508e-05 -2.79632991e-06 0. -1.29569762e-05
      -1.05624040e-05 -1.08608037e-05 -5.49030983e-06 -9.14506199e-06
      -1.27592484e-05 -1.72462878e-05 -1.12198995e-05 -1.32515161e-05
      -1.32515161e-05 -1.36321014e-05 -9.63733055e-06 -9.63733055e-06
      -1.29808504e-05 -1.32515161e-05 -1.69756222e-05 -7.05555794e-06
      -6.23611504e-06 0. 0. 0. 0. 0. 0. 0. 0. 0. 0. 0. 0. 0. 0. 0. 0. 0.
      0. 0. 0. 0. -4.70042005e-06 -7.49674973e-06 -1.09567209e-05
      -1.46808261e-05 -1.02510730e-05 -9.84801227e-06 -9.84801227e-06
      -7.22608365e-06 -7.22608365e-06 -1.06860552e-05 -1.06860552e-05
      -7.88972466e-06 -7.22608365e-06 -7.22608365e-06 -7.22608365e-06
      -1.06860552e-05 -6.25630128e-06 -6.25630128e-06 -3.45997137e-06 0.
      -1.02556196e-05 -1.02556196e-05 0. 0. 0. 0. 0. 0. 0. 0. 0. 0. 0.
      0. 0. 0. 0. 0. 0. 0. 0. 0. 0. 0. 0. 0. 0. 0. -1.02556196e-05
      -1.61361349e-05 -1.61361349e-05 -1.61361349e-05 -1.02556196e-05
      -1.02556196e-05 -1.11150603e-05 -1.69955747e-05 -1.69955747e-05
      -1.95961056e-05 -1.95961056e-05 -1.69955747e-05 -1.87314399e-05
      -1.99563110e-05 -6.73995510e-06 0. 0. 0. 0. 0. 0. 0. 0. 0. 0. 0.
      0. 0. 0. 0. -1.02556196e-05 -1.12643520e-05 -1.84607743e-05
      -1.84607743e-05 -1.84607743e-05 -1.94695058e-05 -1.94695058e-05
      -1.94695058e-05 -1.94695058e-05 -1.94695058e-05 -1.94695058e-05
      -1.94695058e-05 -1.94695058e-05 -2.10520757e-05 -2.13270141e-05
      -2.00055874e-05 -2.73396072e-05 -1.70839867e-05 -1.28758356e-05
      -1.78995542e-05 -2.30760888e-05 -2.46013715e-05 -3.49142792e-05
      -2.51501478e-05 -5.95891242e-06 0. 0. 0. 0. 0. 0. 0. 0. 0. 0. 0.
      0. 0. 0. 0. -1.49553841e-06 -1.49358248e-05 -2.94804759e-05
      -2.54857041e-05 -1.77596576e-05 -1.36453482e-05 -1.25152410e-05
      -1.53505498e-05 -2.22888284e-05 -2.22888284e-05 -2.60938905e-05
      -2.60938905e-05 -2.02099309e-05 -1.04019291e-05 -9.39319671e-06
      -1.21895264e-05 -1.21895264e-05 -1.31982588e-05 -1.52581079e-05
      -2.17268607e-05 -2.40523350e-05 -2.43230024e-05 -4.45546648e-05
      -2.91994693e-05 -1.16852125e-05 0. 0. 0. 0. 0. 0. 0. 0. 0. 0. 0.
      0. 0. 0. 0. -9.92006335e-06 -1.91262461e-05 -3.86741522e-05
      -4.45546648e-05 -2.73514870e-05 -1.98884027e-05 -1.91262461e-05
      -1.76307076e-05 -1.75734222e-05 -1.34166867e-05 -1.19211481e-05
      -2.11314682e-06 -4.73507544e-06 -6.23061396e-06 -1.84248029e-06
      -4.05056744e-06 2.20957759e-06 7.05317234e-06 3.30008311e-06
      -3.16866999e-06 -1.49514926e-05 -2.75620914e-05 -4.17797273e-05
      -1.37766719e-05 0. 0. 0. 0. 0. 0. 0. 0. 0. 0. 0. 0. 0. 0. 0. 0.
      -8.42452482e-06 -1.64470312e-05 -2.17175475e-05 -3.87936889e-05
      -2.77226263e-05 -6.48998707e-07 -6.48998707e-07 2.91301291e-07
      2.91301291e-07 6.42687928e-06 1.28956326e-05 1.33122539e-05
      1.37260949e-05 1.33094736e-05 1.33094736e-05 1.33094736e-05
      1.33094736e-05 1.33094736e-05 1.33094736e-05 3.08763128e-06
      -2.14550819e-05 -3.84121158e-05 -1.88560571e-05 -3.45997137e-06 0.
      0. 0. 0. 0. 0. 0. 0. 0. 0. 0. 0. 0. 0. 0. 0. 0. -9.92006335e-06
      -1.90689607e-05 -2.25860967e-05 -1.70412386e-05 -1.69412942e-06
      5.23496283e-06 1.50429642e-05 1.50429642e-05 1.50429642e-05
      1.58734256e-05 1.66329064e-05 1.66329064e-05 1.67543385e-05
      1.67543385e-05 1.55782363e-05 1.80866446e-05 1.59393148e-05
      1.23451064e-05 -1.13119941e-05 -2.77327817e-05 -3.25328401e-05
      -1.09230550e-05 0. 0. 0. 0. 0. 0. 0. 0. 0. 0. 0. 0. 0. 0. 0. 0. 0.
      4.16621219e-07 2.56395265e-06 -8.92756907e-06 -1.38830783e-05
      -1.64920530e-05 7.88090347e-06 8.11387144e-06 1.54595855e-05
      1.58734256e-05 2.10856269e-05 2.10856269e-05 2.37154673e-05
      3.75196250e-05 3.75196250e-05 3.75196250e-05 2.88485699e-05
      2.88485699e-05 3.24972243e-05 1.66917089e-05 -2.31178001e-05
      -2.89186537e-05 -1.60040272e-05 0. 0. 0. 0. 0. 0. 0. 0. 0. 0. 0.
      3.08763128e-06 0. 0. 0. 0. 2.14733132e-06 2.14733132e-06
      2.14733132e-06 2.56395265e-06 -1.86580098e-06 -1.04231076e-05
      -1.69526265e-05 -9.31077921e-06 -5.10227210e-06 2.97977363e-06
      1.10137762e-05 1.89202983e-05 2.46484196e-05 2.31832200e-05
      1.95690336e-05 1.98414291e-05 2.34556155e-05 2.49511540e-05
      1.66934606e-05 7.03383557e-06 -7.37876371e-06 -2.04674852e-05
      -1.89859529e-05 -4.37889958e-06 0. 0. 0. 0. 0. 0. 0. 0. 0. 0. 0.
      3.08763128e-06 0. 0. 0. 2.14733132e-06 2.14733132e-06
      2.14733132e-06 2.14733132e-06 2.14733132e-06 2.56395265e-06
      -2.10748294e-06 1.08384199e-06 -8.87129318e-06 -1.76888771e-05
      -1.90193850e-06 1.02839692e-06 1.02839692e-06 2.79632991e-06
      -2.54109884e-21 1.02556196e-05 1.02556196e-05 1.02556196e-05
      1.30519502e-05 1.30519502e-05 1.10113649e-06 -2.13815110e-06
      3.38895529e-06 4.88029309e-06 9.54123607e-06 0. 0. 0. 0. 0. 0. 0.
      0. 0. 0. 0. 9.55638461e-06 0. 0. 0. 0. 2.14733132e-06
      2.14733132e-06 2.14733132e-06 2.14733132e-06 4.33188552e-06
      9.09941537e-06 2.98440227e-05 2.38447119e-05 2.20749589e-05
      1.84607743e-05 2.09650443e-05 2.17272009e-05 2.23300922e-05
      2.25817093e-05 2.41642792e-05 2.72519101e-05 2.72519101e-05
      3.12466800e-05 3.38686114e-05 3.38686114e-05 2.43763498e-05
      1.62512079e-05 1.63681107e-05 9.54123607e-06 0. 0. 0. 0. 0. 0. 0.
      0. 0. 0. 0. 1.73483531e-05 4.45272008e-06 0. 0. 0. 0.
      2.14733132e-06 2.14733132e-06 2.90681146e-06 9.80784625e-06
      1.43665229e-05 3.27513917e-05 4.45546648e-05 4.17583360e-05
      4.14670321e-05 3.81277860e-05 3.16590340e-05 3.16590340e-05
      4.14670321e-05 4.14670321e-05 4.45546648e-05 4.45546648e-05
      3.42990461e-05 3.42990461e-05 4.37951858e-05 2.75330276e-05
      2.48442811e-05 1.59514893e-05 1.16885667e-05 9.54123607e-06 0. 0.
      0. 0. 0. 0. 0. 0. 0. 0. 2.47349035e-05 0. 0. 0. 0. 0. 0. 0.
      1.76793310e-06 2.52741324e-06 1.75509995e-05 3.48669819e-05
      3.93197006e-05 1.92560819e-05 1.62703109e-05 7.05642424e-06
      -3.72299769e-06 7.06755827e-07 8.07403194e-06 1.31843326e-05
      1.59806623e-05 1.33801323e-05 1.31319412e-05 8.65831407e-06
      1.28730017e-05 8.50147899e-06 1.60738091e-05 1.63681107e-05
      4.26292172e-06 0. 0. 0. 0. 0. 0. 0. 0. 0. 1.76793310e-06
      8.33209651e-06 2.09101399e-05 4.45272008e-06 0. 0. 0. 0. 0.
      1.76793310e-06 1.76793310e-06 4.26292172e-06 1.71343781e-05
      2.23889110e-05 8.41792189e-06 -6.10470579e-06 -1.65054698e-05
      -3.68373112e-05 -2.73034293e-05 -1.70478106e-05 -1.72030195e-05
      -3.59327964e-06 2.06097611e-05 1.13869646e-05 1.24529834e-05
      1.78150185e-05 -2.54109884e-21 -2.63019956e-06 1.39587410e-05
      1.60854943e-05 1.38041578e-05 0. 0. 0. 0. 0. 0. 0. 0. 0. 0.
      1.76793310e-06 1.70981239e-05 9.58582223e-06 0. 0. 0. 0. 0. 0. 0.
      1.76793310e-06 1.76793310e-06 4.65188714e-06 8.86053755e-08
      -9.78605840e-06 -1.99436872e-05 -4.11571891e-05 -2.04381649e-05
      7.56214331e-06 2.22185445e-05 3.04392761e-05 4.01019461e-05
      4.45546648e-05 3.46346023e-05 1.42213530e-05 5.72863108e-08
      1.03154425e-05 2.14218253e-05 1.78534265e-05 1.59514893e-05 0. 0.
      0. 0. 0. 0. 0. 0. 0. 0. 5.62882133e-06 1.88270315e-05 0. 0. 0. 0.
      0. 0. 0. 0. 0. 0. 1.34005347e-07 1.34005347e-07 -5.79128664e-06
      -1.45468211e-05 -2.72327343e-05 -1.67881171e-05 4.04926959e-06
      1.79556228e-05 2.30887235e-05 4.01019461e-05 4.45546648e-05
      3.46346023e-05 1.57168906e-05 1.38177966e-05 1.67842882e-05
      2.28442004e-05 1.82700478e-05 1.59514893e-05 2.14733132e-06 0. 0.
      0. 0. 0. 0. 0. 0. 0. 1.05855452e-05 4.10664725e-05 4.45272008e-06
      0. 0. 0. 0. 0. 0. 0. 0. 0. 0. 0. 0. -8.42452482e-06
      -3.17985105e-05 -2.23403822e-05 -1.85913325e-06 1.71961419e-05
      2.10432536e-05 4.45546648e-05 4.45546648e-05 3.46346023e-05
      1.33619124e-05 1.70741878e-05 3.13198943e-05 2.28442004e-05
      1.82700478e-05 1.81360429e-05 2.14733132e-06 0. 0. 0. 0. 0. 0. 0.
      0. 7.59480145e-07 2.78237326e-06 3.91389694e-05 1.76793310e-06 0.
      0. 0. 0. 0. 0. 0. 0. 0. 0. 0. 0. -8.42452482e-06 -2.93245794e-05
      -1.66452319e-05 -8.58620751e-06 1.67795206e-05 2.10432536e-05
      4.01019461e-05 4.45546648e-05 3.43639367e-05 1.43038287e-05
      2.83385398e-05 3.18244129e-05 3.10649339e-05 2.27227683e-05
      1.82700478e-05 1.59514893e-05 2.14733132e-06 0. 0. 0. 0. 0. 0.
      7.59480145e-07 1.01444027e-06 7.72060866e-06 4.32138040e-05
      6.90103525e-06 0. 0. 0. 0. 0. 0. 0. 0. 0. 0. 0. 0. -8.42452482e-06
      -2.77113832e-05 -2.70182209e-05 -1.09309340e-05 1.50027035e-05
      2.06266322e-05 2.56174062e-05 4.45546648e-05 3.46346023e-05
      1.32748810e-05 2.49364512e-05 2.53488924e-05 2.79773030e-05
      1.82700478e-05 1.60854943e-05 1.59514893e-05 6.41025281e-06 0. 0.
      0. 0. 0. 0. 0. 2.54960071e-07 1.01689238e-05 3.43486390e-05
      9.58582223e-06 0. 0. 0. 0. 0. 0. 0. 0. 0. 0. 0. -8.42452482e-06
      -2.75566472e-05 -3.52663628e-05 -2.99740732e-05 1.67665473e-06
      1.42432236e-05 1.84793007e-05 2.56174062e-05 4.45546648e-05
      3.61301391e-05 1.42213530e-05 -2.54109884e-21 -1.08208706e-05
      -6.15205772e-06 -1.30682592e-05 -3.86025704e-06 1.11548325e-05
      4.88776777e-06 2.14733132e-06 0. 0. 0. 0. 0. 0. 3.01292812e-06
      5.03582123e-06 2.47308399e-05 1.39939557e-05 0. 0. 0. 0. 0. 0. 0.
      0. 0. 0. -4.42975352e-06 -1.64470312e-05 -3.54126969e-05
      -2.87909388e-05 -9.30933675e-06 1.76793310e-06 1.44981841e-05
      1.84793007e-05 2.07480643e-05 4.45546648e-05 4.45546648e-05
      3.58594734e-05 1.44920186e-05 -1.27302510e-05 -1.62494089e-05
      -1.66415084e-05 -2.62846170e-05 -2.31128670e-05 -1.77062861e-06 0.
      0. 0. 0. 0. 0. 0. 2.54960071e-07 3.26788836e-06 3.74171104e-05
      2.07051926e-05 0. 0. 0. 2.25344797e-06 2.25344797e-06 0. 0. 0. 0.
      -4.42975352e-06 -1.46808261e-05 -3.03333127e-05 -3.83587067e-05
      -1.34591955e-05 0. 0. 1.24752905e-05 1.84793007e-05 2.37338354e-05
      3.45968074e-05 4.45546648e-05 4.45546648e-05 4.45546648e-05
      3.43328211e-05 2.79773030e-05 1.57925188e-05 4.59397279e-06
      -1.49796351e-05 -5.99275700e-06 2.14733132e-06 0. 0. 0. 0. 0. 0.
      2.54960071e-07 3.26788836e-06 3.69125919e-05 2.08208294e-05
      5.13310215e-06 -2.09298150e-06 -6.79110144e-06 -2.79632991e-06
      -1.46808261e-05 -1.61763655e-05 -1.46808261e-05 -1.59602259e-05
      -1.85821536e-05 -3.98280135e-05 -3.29960531e-05 -3.85423409e-05
      -2.81076336e-05 0. 0. 0. 1.02218428e-05 2.27189175e-05
      2.37338354e-05 3.01440868e-05 4.45546648e-05 4.45546648e-05
      4.45546648e-05 3.35733421e-05 2.79773030e-05 2.78558709e-05
      1.13679080e-05 -9.42631414e-06 -5.99275700e-06 2.14733132e-06 0.
      0. 0. 0. 0. 0. 2.54960071e-07 2.54960071e-07 3.09309289e-05
      6.22065318e-06 -1.12208554e-05 -1.97905501e-05 -2.27404325e-05
      -2.50650719e-05 -3.53206924e-05 -3.63294239e-05 -3.97360054e-05
      -3.50823721e-05 -2.98738378e-05 -1.67256239e-05 -9.99430176e-06
      -1.96441633e-05 -7.46308388e-06 0. 0. 0. 1.09813227e-05
      1.80903353e-05 2.37338354e-05 2.79967571e-05 4.41380434e-05
      4.45546648e-05 4.45546648e-05 3.43328211e-05 3.02307508e-05
      2.78558709e-05 1.42982435e-05 -1.39652020e-05 -9.67678375e-07
      1.16885667e-05 2.14733132e-06 0. 0. 0. 0. 0. 0. 0. 2.26546508e-05
      1.76793310e-06 -7.22608365e-06 -4.36952250e-05 -3.00482388e-05
      -2.18715195e-05 -2.18715195e-05 -2.18715195e-05 -2.08055008e-05
      -1.06991720e-05 -3.35345885e-06 0. 0. 0. 0. 0. 0. 0.
      1.12362832e-05 1.43239140e-05 2.18444693e-05 2.81865541e-05
      4.19907119e-05 4.45546648e-05 4.45546648e-05 3.43328211e-05
      2.79773030e-05 2.28442004e-05 1.42752770e-05 -1.21972689e-05
      -3.00923398e-06 1.16885667e-05 2.14733132e-06 2.14733132e-06 0. 0.
      0. 0. 0. 2.25344797e-06 8.36499294e-06 0. -4.42975352e-06
      -4.00810386e-05 -3.35345885e-06 -1.58256955e-06 -1.58256955e-06
      -1.58256955e-06 -1.58256955e-06 0. 0. 0. 0. 0. 0. 0. 0. 0.
      1.04768023e-05 1.65773617e-05 1.67113667e-05 2.19659014e-05
      3.28660972e-05 4.45546648e-05 4.45546648e-05 3.40778606e-05
      2.87367820e-05 1.83914799e-05 1.42752770e-05 -8.73729823e-06
      -7.78009689e-06 1.16885667e-05 2.14733132e-06 2.14733132e-06 0. 0.
      0. 0. 0. 0. 2.56395265e-06 0. -7.22608365e-06 -2.67776504e-05
      -9.43535906e-06 0. 0. 0. -4.42975352e-06 0. 0. 0. 0. 0. 0. 0. 0.
      0. 1.02218428e-05 2.17104644e-05 2.34783965e-05 2.86031755e-05
      3.28660972e-05 4.24073332e-05 4.45546648e-05 3.20793733e-05
      2.87367820e-05 2.79773030e-05 1.82700478e-05 2.52705445e-06
      -1.80357165e-05 8.64521735e-06 2.14733132e-06 2.14733132e-06
      2.14733132e-06 0. 0. 0. 0. 0. 0. 0. -8.42452482e-06
      -2.91022898e-05 -3.21450134e-05 -1.18844964e-05 -1.46808261e-05
      -1.46808261e-05 -1.64470312e-05 -1.75734222e-05 -1.83355787e-05
      -6.25630128e-06 0. 0. 0. 0. 0. 0. 1.04768023e-05 1.35644341e-05
      2.17104644e-05 2.81865541e-05 3.28660972e-05 4.24073332e-05
      4.24073332e-05 3.40778606e-05 2.87367820e-05 2.28442004e-05
      1.82700478e-05 2.66105985e-06 -2.51912334e-05 9.93924277e-06
      1.16885667e-05 2.14733132e-06 2.14733132e-06 0. 0. 0. 0. 0. 0. 0.
      -8.42452482e-06 -2.48043452e-05 -4.15068971e-05 -1.64470312e-05
      -1.64470312e-05 -1.98884027e-05 -1.80356492e-05 -3.95121242e-05
      -4.45546648e-05 -1.88950853e-05 0. 0. 0. 0. 0. 0. 1.02218428e-05
      1.35644341e-05 2.34783965e-05 2.37338354e-05 3.24494758e-05
      3.28660972e-05 3.28660972e-05 3.43328211e-05 2.59404533e-05
      2.00478698e-05 8.04194224e-06 -1.61835476e-06 -2.24238502e-05
      -7.25044083e-06 2.14733132e-06 2.14733132e-06 2.14733132e-06
      2.14733132e-06 0. 0. 0. 0. 0. 0. 0. -1.57156537e-05
      -2.98738378e-05 -1.96661567e-05 -1.99368224e-05 -7.76700108e-06
      -1.44679279e-05 -2.01926359e-05 -3.12428056e-05 -4.19327371e-05
      -1.47381124e-05 -3.45997137e-06 -3.45997137e-06 0. 0. 0.
      1.02218428e-05 1.43239140e-05 1.43239140e-05 2.19659014e-05
      2.81865541e-05 3.28660972e-05 3.79775811e-05 2.46887412e-05
      1.08483500e-05 1.03768059e-07 -7.79820766e-07 -4.03499962e-06
      -1.42595827e-05 1.04875953e-05 1.16885667e-05 2.14733132e-06
      2.14733132e-06 2.14733132e-06 2.14733132e-06 0. 0. 0. 0. 0. 0.
      -1.33033882e-05 -2.44196854e-05 -2.18142322e-05 -9.78772368e-06
      -9.78772368e-06 -7.46308388e-06 -5.88051444e-06 -1.42503914e-05
      -2.65423860e-05 -2.93527646e-05 -1.49514926e-05 -1.10140072e-05
      -6.25630128e-06 0. 6.88259479e-06 1.02218428e-05 1.33094736e-05
      1.65773617e-05 2.18318964e-05 2.36222913e-05 1.99954884e-05
      2.41923699e-05 9.44505882e-06 1.65483516e-06 -1.43640536e-05
      -2.75906041e-06 9.99321765e-06 3.77256424e-06 1.60854943e-05
      1.16885667e-05 1.16885667e-05 2.14733132e-06 2.14733132e-06
      2.14733132e-06 0. 0. 0. 0. 0. 0. -3.04776836e-06 -7.46308388e-06
      -7.46308388e-06 -7.46308388e-06 0. 0. 0. 0. -1.58256955e-06
      -2.16881726e-05 -2.71232420e-05 -1.89023631e-05 -1.31638617e-05
      -6.25630128e-06 -1.04310948e-05 -2.09252207e-07 -1.11639247e-06
      1.75987475e-06 1.88130673e-06 -1.53668771e-06 2.72623402e-06
      9.65932577e-06 -1.61904723e-07 -3.64778407e-06 1.29071850e-05
      2.27227683e-05 1.65021156e-05 1.18225726e-05 1.18225726e-05
      2.14733132e-06 2.14733132e-06 2.14733132e-06 2.14733132e-06 0. 0.
      0. 0. 0. 0. 0. 0. 0. 0. 0. 0. 0. 0. 0. 0. -1.58256955e-06
      -3.90720879e-06 -2.76084284e-05 -2.55013729e-05 -2.61250771e-05
      -1.76307076e-05 -8.64944377e-06 -9.93815502e-06 -2.96132407e-06
      -2.75075877e-06 -1.10159972e-05 -2.97205702e-06 -1.59458577e-05
      3.11873805e-06 -1.65125289e-06 4.93498010e-06 1.65021156e-05
      1.16885667e-05 1.16885667e-05 2.14733132e-06 2.14733132e-06
      2.14733132e-06 2.14733132e-06 2.14733132e-06 2.14733132e-06 0. 0.
      0. 0. 0. 0. 0. 0. 0. 0. 0. 0. 0. 0. 0. 0. 0. -3.04776836e-06
      -1.99238057e-05 -2.72252510e-05 -1.22967558e-05 -3.32715172e-06
      -1.86208717e-06 -8.24979816e-06 -7.36620950e-06 -7.36620950e-06
      -6.50676930e-06 1.14195791e-06 4.22350331e-06 5.38053143e-07
      5.38053143e-07 2.56395265e-06 2.14733132e-06 2.14733132e-06
      2.14733132e-06 2.14733132e-06 2.14733132e-06 2.14733132e-06
      2.14733132e-06 2.14733132e-06 2.14733132e-06 0. 0. 0. 0. 0. 0. 0.
      0. 0. 0. 0. 0. 0. 0. 0. 0. 0. -1.18381895e-05 -1.18381895e-05
      -1.45833228e-05 -9.82150050e-06 -4.82307132e-06 2.64001255e-06
      1.28956326e-05 1.35644341e-05 1.35644341e-05 6.68183930e-06
      3.08763128e-06 0. 0. 0. 0. 2.14733132e-06 2.14733132e-06
      2.14733132e-06 2.14733132e-06 2.14733132e-06 2.14733132e-06
      2.14733132e-06 0. 0. 0. 0. 0. 0. 0. 0. 0. 0. 0. 0. 0. 0. 0. 0. 0.
      0. 0. 0. 0. 9.80800087e-06 1.28956326e-05 1.28956326e-05
      1.28956326e-05 1.28956326e-05 1.28956326e-05 3.08763128e-06 0. 0.
      0. 0. 0. 0. 0. 0. 0. 0. 0. 0. 0. 0. 0. 0. 0. 0. 0. 0. 0. 0. 0. 0.
      0. 0. 0. 0. 0. 0. 0. 0. 0. 0. 3.08763128e-06 3.08763128e-06
      3.08763128e-06 3.08763128e-06 3.08763128e-06 3.08763128e-06 0. 0.
      0. 0. 0. 0. 0. 0. 0. 0. 0. 0. 0. 0. 0. 0. 0. 0. 0. 0. 0. 0. 0. 0.
      0. 0. 0. 0. 0. 0. 0. 0. 0. 0. 0. 0. 0. 0. 0. 0. 0. 0. 0. 0. 0. 0.
      0. 0. 0. 0. 0. 0. 0. 0. 0.</_>
    <_>
      0. 0. 0. 0. 0. 0. 0. 0. 0. 0. 0. 2.53141638e-06 2.53141638e-06
      2.53141638e-06 8.56131737e-06 1.13669312e-05 1.60343063e-06
      4.39341238e-06 3.06083939e-06 2.90570256e-06 1.60343063e-06
      1.60343063e-06 1.60343063e-06 1.60343063e-06 -4.23454730e-06
      3.79300559e-06 2.72333978e-06 2.72333978e-06 0. 0. 0. 0. 0. 0. 0.
      0. 0. 0. 0. 0. 0. 0. 0. 0. 0. 0. 0. 0. 0. 0. 0. 8.36939489e-06
      9.63098410e-06 1.60343063e-06 5.85082125e-06 8.70288204e-06
      1.56188235e-05 1.69594750e-05 1.69594750e-05 1.55257676e-05
      1.41851169e-05 1.69594750e-05 8.79641811e-06 1.49913030e-05
      4.39341238e-06 1.60343063e-06 1.60343063e-06 -7.04016111e-06
      2.72333978e-06 0. 0. 0. 0. 0. 0. 0. 0. 0. 0. 0. 0. 0. 0. 0. 0. 0.
      0. 0. 0. 0. -1.39410611e-06 4.20148899e-06 -9.64869741e-07
      3.34459946e-06 7.83777432e-06 7.83777432e-06 7.83777432e-06
      8.68492771e-06 8.68492771e-06 8.68492771e-06 7.65654022e-06
      7.65654022e-06 1.28177289e-05 1.44416244e-05 1.31393526e-05
      1.28591419e-05 1.60343063e-06 -1.32516845e-07 -5.97049484e-06
      2.53141638e-06 0. 0. 0. 0. 0. 0. 0. 0. 0. 0. 0. 0. 0. 0. 0. 0. 0.
      0. 0. -6.98865824e-06 -7.45561647e-06 2.15803720e-06
      6.81881829e-06 2.26923407e-06 -2.04480170e-06 1.20018212e-05
      1.60946456e-05 1.06705847e-05 1.06705847e-05 6.18214699e-06
      1.32806417e-05 1.41557439e-05 1.47250184e-05 2.82071142e-06
      8.45777868e-06 1.01579590e-05 1.28918355e-05 6.01249940e-06
      -6.45908767e-06 -7.04016111e-06 0. 0. 0. 0. 0. 0. 0. 0. 0. 0. 0.
      0. 0. 0. 0. 0. 0. 0. 0. -8.00761427e-06 -6.31538933e-06
      2.26923407e-06 -1.21603098e-05 1.11415056e-06 1.06518737e-05
      1.45090426e-05 1.45090426e-05 1.45090426e-05 1.45090426e-05
      1.45090426e-05 1.45090426e-05 1.45090426e-05 1.45090426e-05
      1.61286953e-05 1.87444966e-05 1.93137712e-05 6.46088347e-06
      8.34670391e-06 -3.98611292e-06 5.33764592e-07 -7.04016111e-06 0.
      0. 0. 0. 0. 0. 0. 0. 0. 0. 0. 0. 0. 0. 0. 0. 0. 0. -2.31071908e-06
      8.35527771e-07 -5.56398345e-06 7.77190689e-06 1.29887003e-05
      7.77190689e-06 7.77190689e-06 7.77190689e-06 7.77190689e-06
      7.77190689e-06 5.24049074e-06 7.77190689e-06 1.29887003e-05
      1.29887003e-05 1.45090426e-05 2.65017261e-05 2.65017261e-05
      1.71476513e-05 8.08477853e-06 4.40125177e-06 -1.11886663e-07
      -7.04016111e-06 2.53141638e-06 0. 0. 0. 0. 0. 0. 0. 0. 0. 0. 0. 0.
      0. 0. 0. 0. 0. -3.65137043e-06 1.51242648e-05 1.11697327e-05
      7.77190689e-06 7.77190689e-06 5.53606287e-06 -6.75885440e-06
      -1.71320596e-06 7.10969239e-09 7.10969239e-09 7.10969239e-09
      7.58103533e-06 7.58103533e-06 5.04856780e-06 7.77190689e-06
      1.29887003e-05 1.45090426e-05 1.45090426e-05 2.65017261e-05
      8.67413110e-06 -1.20346167e-05 -5.39047505e-06 2.53141638e-06 0.
      0. 0. 0. 0. 0. 0. 0. 0. 0. 0. 0. 0. 0. 0. 0. 0. 9.04675926e-06
      1.60030595e-05 1.19542801e-05 2.18957507e-06 -4.39341238e-06
      -6.22553307e-06 -6.22553307e-06 -2.86052978e-06 -1.35944711e-05
      -1.22538195e-05 -1.12763946e-05 -1.12790531e-05 -3.43555121e-06
      7.04016111e-06 -1.91923249e-07 1.61054027e-06 7.77190689e-06
      1.29887003e-05 1.64924568e-05 2.24056039e-05 1.64155263e-05
      -1.51803770e-05 -7.23208404e-06 0. 0. 0. 0. 0. 0. 0. 0. 0. 0. 0.
      0. 0. 0. 0. 0. 0. -3.03961792e-06 9.82439360e-07 1.01823362e-05
      2.30010073e-06 -2.67658584e-06 -2.67658584e-06 -2.67658584e-06
      -1.90442347e-06 -1.13123144e-06 -1.13123144e-06 -5.26403301e-06
      -3.48655271e-06 1.76373177e-07 1.71293486e-05 -4.98799466e-07
      -2.53141638e-06 -1.35525272e-20 1.61054027e-06 8.34767525e-06
      1.64924568e-05 1.20395935e-05 -4.82782661e-06 -8.57085161e-06 0.
      0. 0. 0. 0. 0. 0. 0. 0. 0. 0. 0. 0. 0. 0. 0. 0. 1.03730308e-05
      1.03021621e-05 1.59539068e-05 9.57096654e-06 8.79880372e-06
      9.03533783e-06 4.09206086e-06 -1.40164129e-05 -2.40256832e-05
      -2.40256832e-05 -2.50446392e-05 -1.56360657e-05 -1.72242981e-05
      -1.52375173e-06 2.05271754e-05 3.05812705e-06 -1.35525272e-20
      -1.35525272e-20 7.77190689e-06 9.75532203e-06 2.37117456e-05
      2.90055073e-06 -9.02368720e-06 0. 0. 0. 0. 0. 0. 0. 0.
      1.64552932e-06 0. 0. 0. 0. 0. 0. 0. 0. 0. 6.69724750e-06
      2.99898625e-06 2.45580395e-05 -7.77190689e-06 -7.77190689e-06
      -7.77190689e-06 -7.77190689e-06 -7.77190689e-06 -7.77190689e-06
      -1.45090426e-05 -1.45090426e-05 -2.65017261e-05 -2.17320539e-05
      9.63450293e-06 1.62194538e-05 -1.35525272e-20 -1.35525272e-20
      -1.35525272e-20 3.59395540e-06 2.37117456e-05 -6.93189349e-07
      3.37324968e-06 0. 0. 0. 0. 0. 0. 0. 0. 1.24046474e-05 0. 0. 0. 0.
      0. 0. 0. 0. 0. -7.77190689e-06 -7.77190689e-06 -7.77190689e-06
      -1.61054027e-06 -1.61054027e-06 -1.61054027e-06 -1.61054027e-06 0.
      0. -1.61054027e-06 -1.61054027e-06 -9.75532203e-06 -8.77037473e-06
      5.41296959e-06 -3.76547149e-07 -1.35525272e-20 -1.35525272e-20
      -1.35525272e-20 -1.35525272e-20 1.69746108e-05 3.44732530e-06
      8.79731033e-06 0. 0. 0. 0. 0. 0. 0. 0. 1.12637308e-05 0. 0. 0. 0.
      0. 0. 0. 0. 0. 0. 0. 0. 0. 0. 0. 0. 0. 0. 0. 0. 0. -7.63600724e-07
      3.39420922e-07 -4.49607069e-06 -1.64968594e-06 -1.35525272e-20
      -1.35525272e-20 -1.35525272e-20 2.21914033e-05 9.04424542e-06
      1.35895853e-05 3.76549593e-07 0. 0. 0. 0. 0. 0. 0. 2.53430117e-05
      0. 0. 0. 0. 0. 0. 0. 0. 0. 0. 0. 0. 0. 0. 0. 0. 0. 0. 0. 0.
      -1.98341490e-06 2.03296622e-06 -8.44665465e-06 -6.24365066e-06
      -1.64968594e-06 -1.35525272e-20 -1.35525272e-20 -1.35525272e-20
      1.65960100e-05 1.10881974e-05 1.35895853e-05 2.02623551e-06 0. 0.
      0. 0. 0. 0. 2.98618056e-06 3.77607807e-06 0. 0. 0. 0. 0. 0. 0. 0.
      0. 0. 0. 0. 0. 0. 0. 0. 0. 0. 0. 0. -1.98341490e-06 2.47578441e-06
      -1.29257151e-05 -2.19258145e-05 -1.64968594e-06 -1.35525272e-20
      -1.35525272e-20 -1.35525272e-20 6.38545453e-06 9.02469037e-06
      1.44231726e-05 3.76549593e-07 0. 0. 0. 0. 0. 0. 1.34065135e-06
      1.96135352e-05 0. 0. 0. 0. 0. 0. 0. 0. 0. 0. 0. 0. 0. 0. 0. 0. 0.
      0. -9.76350020e-06 -9.76350020e-06 -8.70849908e-06 -8.35804167e-06
      -2.32655966e-05 -1.44231726e-05 -1.35525272e-20 -1.35525272e-20
      -1.35525272e-20 1.98341490e-06 2.31780014e-05 2.32655966e-05
      1.44231726e-05 0. 0. 0. 0. 0. 0. 0. 1.64552932e-06 2.70879391e-05
      0. 0. 0. 0. 0. 0. 0. 0. 0. 0. 0. 0. 0. -1.19880406e-05
      -1.53530436e-05 -2.15492673e-05 -2.07771045e-05 -2.16282897e-05
      -2.98079285e-05 -3.39115068e-05 -1.78252067e-05 -2.73004262e-05
      -1.95104785e-05 -1.40466227e-05 -1.35525272e-20 -1.35525272e-20
      1.17469153e-05 2.36743090e-05 4.35108886e-05 2.24184441e-05
      1.44231726e-05 0. 0. 0. 0. 0. 0. 0. 2.64292339e-06 2.35911793e-05
      1.64552932e-06 0. 0. 0. 0. 0. 0. 0. 0. 0. -1.98341490e-06
      -1.98341490e-06 -5.57715521e-06 -2.03295531e-05 -2.87503171e-05
      -3.39115068e-05 -3.39115068e-05 -3.39115068e-05 -3.39115068e-05
      -2.69474040e-05 -2.12154428e-05 -2.20418951e-05 -1.40466227e-05
      -1.23969367e-05 1.11405700e-06 2.36873475e-05 2.63807615e-05
      3.30817493e-05 2.34575200e-05 1.69545892e-05 1.23969367e-05 0. 0.
